{"features.0.weight": [[[[1.0, 1.0, -1.0], [1.0, -1.0, 1.0], [-1.0, -1.0, -1.0]], [[1.0, -1.0, -1.0], [1.0, -1.0, 1.0], [-1.0, -1.0, 1.0]], [[1.0, -1.0, -1.0], [1.0, -1.0, 1.0], [-1.0, -1.0, 1.0]]], [[[1.0, 1.0, -1.0], [1.0, 1.0, 1.0], [-1.0, -1.0, -1.0]], [[1.0, 1.0, -1.0], [1.0, 1.0, -1.0], [1.0, -1.0, -1.0]], [[1.0, -1.0, -1.0], [1.0, 1.0, -1.0], [1.0, -1.0, -1.0]]], [[[1.0, 1.0, -1.0], [-1.0, 1.0, 1.0], [-1.0, 1.0, -1.0]], [[1.0, 1.0, -1.0], [-1.0, 1.0, -1.0], [-1.0, 1.0, -1.0]], [[1.0, 1.0, -1.0], [-1.0, 1.0, -1.0], [-1.0, 1.0, -1.0]]], [[[1.0, -1.0, -1.0], [1.0, -1.0, -1.0], [1.0, 1.0, 1.0]], [[1.0, -1.0, -1.0], [1.0, -1.0, -1.0], [1.0, 1.0, -1.0]], [[1.0, 1.0, 1.0], [1.0, -1.0, -1.0], [1.0, 1.0, -1.0]]], [[[-1.0, -1.0, -1.0], [1.0, 1.0, 1.0], [-1.0, 1.0, 1.0]], [[-1.0, -1.0, -1.0], [-1.0, 1.0, 1.0], [-1.0, 1.0, 1.0]], [[-1.0, -1.0, -1.0], [-1.0, 1.0, 1.0], [-1.0, 1.0, 1.0]]], [[[1.0, 1.0, -1.0], [-1.0, -1.0, -1.0], [-1.0, -1.0, 1.0]], [[1.0, 1.0, 1.0], [-1.0, 1.0, 1.0], [-1.0, 1.0, 1.0]], [[-1.0, 1.0, -1.0], [-1.0, -1.0, -1.0], [-1.0, -1.0, 1.0]]], [[[1.0, -1.0, -1.0], [1.0, -1.0, -1.0], [-1.0, -1.0, -1.0]], [[1.0, 1.0, 1.0], [1.0, 1.0, 1.0], [1.0, 1.0, 1.0]], [[1.0, 1.0, -1.0], [1.0, -1.0, 1.0], [-1.0, -1.0, -1.0]]], [[[-1.0, 1.0, -1.0], [-1.0, 1.0, -1.0], [1.0, 1.0, 1.0]], [[1.0, 1.0, -1.0], [-1.0, 1.0, -1.0], [-1.0, 1.0, -1.0]], [[1.0, 1.0, -1.0], [-1.0, 1.0, -1.0], [-1.0, 1.0, -1.0]]], [[[1.0, -1.0, -1.0], [1.0, -1.0, -1.0], [-1.0, -1.0, 1.0]], [[1.0, -1.0, -1.0], [1.0, 1.0, 1.0], [-1.0, 1.0, 1.0]], [[-1.0, -1.0, -1.0], [1.0, -1.0, -1.0], [-1.0, 1.0, 1.0]]], [[[-1.0, -1.0, 1.0], [-1.0, -1.0, 1.0], [1.0, 1.0, 1.0]], [[-1.0, -1.0, 1.0], [-1.0, -1.0, 1.0], [-1.0, 1.0, 1.0]], [[-1.0, 1.0, 1.0], [-1.0, -1.0, 1.0], [-1.0, 1.0, 1.0]]], [[[1.0, 1.0, 1.0], [-1.0, 1.0, 1.0], [-1.0, -1.0, -1.0]], [[1.0, 1.0, 1.0], [-1.0, 1.0, -1.0], [-1.0, -1.0, -1.0]], [[1.0, 1.0, 1.0], [-1.0, 1.0, 1.0], [-1.0, -1.0, -1.0]]], [[[1.0, 1.0, 1.0], [1.0, 1.0, 1.0], [-1.0, -1.0, -1.0]], [[-1.0, 1.0, 1.0], [-1.0, -1.0, 1.0], [-1.0, -1.0, -1.0]], [[-1.0, 1.0, 1.0], [1.0, 1.0, 1.0], [-1.0, -1.0, 1.0]]], [[[1.0, -1.0, -1.0], [1.0, -1.0, -1.0], [1.0, 1.0, 1.0]], [[1.0, -1.0, -1.0], [-1.0, -1.0, 1.0], [-1.0, -1.0, 1.0]], [[1.0, 1.0, 1.0], [-1.0, -1.0, 1.0], [-1.0, -1.0, 1.0]]], [[[-1.0, -1.0, -1.0], [-1.0, 1.0, 1.0], [-1.0, -1.0, 1.0]], [[-1.0, 1.0, 1.0], [-1.0, 1.0, 1.0], [-1.0, 1.0, 1.0]], [[-1.0, -1.0, 1.0], [-1.0, 1.0, 1.0], [-1.0, -1.0, 1.0]]], [[[-1.0, -1.0, -1.0], [1.0, 1.0, -1.0], [-1.0, 1.0, 1.0]], [[1.0, 1.0, -1.0], [1.0, 1.0, -1.0], [-1.0, 1.0, -1.0]], [[1.0, 1.0, -1.0], [1.0, 1.0, -1.0], [-1.0, -1.0, -1.0]]], [[[-1.0, -1.0, -1.0], [-1.0, -1.0, -1.0], [-1.0, -1.0, -1.0]], [[1.0, 1.0, -1.0], [-1.0, -1.0, -1.0], [1.0, 1.0, 1.0]], [[1.0, 1.0, -1.0], [1.0, -1.0, -1.0], [1.0, 1.0, -1.0]]], [[[-1.0, 1.0, -1.0], [-1.0, 1.0, -1.0], [1.0, 1.0, -1.0]], [[-1.0, 1.0, 1.0], [1.0, 1.0, -1.0], [1.0, 1.0, -1.0]], [[-1.0, 1.0, 1.0], [-1.0, 1.0, -1.0], [-1.0, -1.0, -1.0]]], [[[-1.0, -1.0, 1.0], [1.0, 1.0, -1.0], [1.0, 1.0, -1.0]], [[-1.0, -1.0, -1.0], [1.0, 1.0, -1.0], [1.0, 1.0, -1.0]], [[-1.0, -1.0, -1.0], [1.0, 1.0, -1.0], [1.0, 1.0, -1.0]]], [[[1.0, 1.0, -1.0], [1.0, 1.0, -1.0], [-1.0, -1.0, 1.0]], [[1.0, 1.0, -1.0], [1.0, 1.0, -1.0], [-1.0, -1.0, -1.0]], [[1.0, 1.0, -1.0], [1.0, 1.0, -1.0], [-1.0, -1.0, -1.0]]], [[[1.0, 1.0, -1.0], [-1.0, -1.0, -1.0], [-1.0, -1.0, 1.0]], [[-1.0, -1.0, -1.0], [-1.0, -1.0, -1.0], [-1.0, -1.0, 1.0]], [[1.0, 1.0, -1.0], [1.0, -1.0, 1.0], [1.0, 1.0, 1.0]]], [[[1.0, 1.0, 1.0], [-1.0, -1.0, -1.0], [-1.0, 1.0, 1.0]], [[1.0, -1.0, -1.0], [1.0, -1.0, -1.0], [1.0, 1.0, 1.0]], [[1.0, -1.0, -1.0], [1.0, -1.0, -1.0], [-1.0, 1.0, 1.0]]], [[[-1.0, -1.0, -1.0], [-1.0, -1.0, -1.0], [-1.0, -1.0, -1.0]], [[-1.0, -1.0, -1.0], [-1.0, 1.0, 1.0], [-1.0, 1.0, 1.0]], [[1.0, 1.0, 1.0], [1.0, 1.0, 1.0], [1.0, 1.0, 1.0]]], [[[-1.0, -1.0, -1.0], [-1.0, 1.0, -1.0], [1.0, 1.0, 1.0]], [[-1.0, -1.0, -1.0], [-1.0, 1.0, -1.0], [1.0, 1.0, 1.0]], [[-1.0, -1.0, -1.0], [-1.0, 1.0, -1.0], [1.0, 1.0, -1.0]]], [[[-1.0, -1.0, 1.0], [1.0, -1.0, 1.0], [1.0, -1.0, -1.0]], [[-1.0, -1.0, 1.0], [1.0, 1.0, 1.0], [1.0, -1.0, -1.0]], [[-1.0, -1.0, 1.0], [1.0, 1.0, 1.0], [1.0, -1.0, -1.0]]], [[[-1.0, 1.0, -1.0], [-1.0, 1.0, -1.0], [-1.0, -1.0, -1.0]], [[1.0, 1.0, 1.0], [1.0, 1.0, 1.0], [1.0, 1.0, 1.0]], [[-1.0, -1.0, -1.0], [-1.0, 1.0, -1.0], [-1.0, -1.0, -1.0]]], [[[-1.0, -1.0, -1.0], [1.0, -1.0, 1.0], [1.0, -1.0, 1.0]], [[1.0, -1.0, -1.0], [1.0, -1.0, 1.0], [-1.0, -1.0, 1.0]], [[1.0, -1.0, -1.0], [1.0, -1.0, 1.0], [1.0, -1.0, 1.0]]], [[[-1.0, 1.0, -1.0], [-1.0, 1.0, -1.0], [1.0, 1.0, 1.0]], [[-1.0, 1.0, -1.0], [-1.0, 1.0, -1.0], [1.0, 1.0, -1.0]], [[-1.0, 1.0, 1.0], [-1.0, 1.0, -1.0], [-1.0, 1.0, -1.0]]], [[[1.0, 1.0, -1.0], [-1.0, 1.0, 1.0], [-1.0, 1.0, -1.0]], [[1.0, -1.0, -1.0], [-1.0, 1.0, 1.0], [-1.0, 1.0, -1.0]], [[1.0, -1.0, -1.0], [-1.0, 1.0, 1.0], [1.0, 1.0, -1.0]]], [[[1.0, 1.0, 1.0], [1.0, -1.0, -1.0], [1.0, -1.0, -1.0]], [[1.0, 1.0, 1.0], [1.0, -1.0, -1.0], [-1.0, -1.0, -1.0]], [[1.0, 1.0, 1.0], [1.0, -1.0, 1.0], [-1.0, -1.0, -1.0]]], [[[-1.0, -1.0, 1.0], [-1.0, -1.0, -1.0], [1.0, -1.0, -1.0]], [[-1.0, 1.0, 1.0], [1.0, -1.0, -1.0], [1.0, -1.0, -1.0]], [[-1.0, 1.0, 1.0], [1.0, 1.0, 1.0], [1.0, -1.0, -1.0]]], [[[-1.0, -1.0, -1.0], [-1.0, 1.0, 1.0], [1.0, 1.0, 1.0]], [[-1.0, 1.0, -1.0], [-1.0, 1.0, 1.0], [-1.0, 1.0, -1.0]], [[1.0, 1.0, -1.0], [-1.0, 1.0, 1.0], [-1.0, -1.0, -1.0]]], [[[1.0, 1.0, 1.0], [1.0, -1.0, -1.0], [-1.0, -1.0, -1.0]], [[-1.0, -1.0, 1.0], [1.0, -1.0, -1.0], [1.0, -1.0, 1.0]], [[-1.0, -1.0, 1.0], [1.0, -1.0, -1.0], [1.0, -1.0, 1.0]]], [[[1.0, 1.0, -1.0], [-1.0, 1.0, 1.0], [-1.0, 1.0, 1.0]], [[-1.0, -1.0, -1.0], [-1.0, 1.0, -1.0], [-1.0, -1.0, -1.0]], [[1.0, 1.0, -1.0], [-1.0, 1.0, 1.0], [-1.0, 1.0, 1.0]]], [[[1.0, 1.0, 1.0], [1.0, -1.0, -1.0], [1.0, -1.0, 1.0]], [[-1.0, -1.0, 1.0], [-1.0, -1.0, -1.0], [1.0, -1.0, -1.0]], [[-1.0, 1.0, 1.0], [1.0, -1.0, -1.0], [1.0, 1.0, 1.0]]], [[[-1.0, -1.0, -1.0], [1.0, -1.0, 1.0], [1.0, -1.0, 1.0]], [[1.0, -1.0, -1.0], [1.0, -1.0, 1.0], [1.0, -1.0, 1.0]], [[1.0, -1.0, -1.0], [1.0, -1.0, 1.0], [1.0, -1.0, 1.0]]], [[[-1.0, -1.0, -1.0], [1.0, 1.0, 1.0], [1.0, 1.0, -1.0]], [[-1.0, -1.0, 1.0], [-1.0, 1.0, 1.0], [-1.0, -1.0, -1.0]], [[1.0, 1.0, 1.0], [-1.0, 1.0, 1.0], [-1.0, -1.0, -1.0]]], [[[1.0, 1.0, 1.0], [-1.0, 1.0, 1.0], [-1.0, -1.0, 1.0]], [[1.0, 1.0, 1.0], [-1.0, 1.0, 1.0], [-1.0, -1.0, -1.0]], [[1.0, 1.0, 1.0], [-1.0, -1.0, -1.0], [-1.0, -1.0, -1.0]]], [[[1.0, 1.0, -1.0], [-1.0, 1.0, -1.0], [-1.0, 1.0, -1.0]], [[1.0, -1.0, -1.0], [-1.0, 1.0, 1.0], [-1.0, 1.0, 1.0]], [[-1.0, -1.0, -1.0], [-1.0, 1.0, 1.0], [-1.0, 1.0, 1.0]]], [[[1.0, -1.0, 1.0], [1.0, -1.0, -1.0], [1.0, 1.0, 1.0]], [[1.0, -1.0, 1.0], [-1.0, -1.0, -1.0], [1.0, -1.0, 1.0]], [[1.0, 1.0, 1.0], [1.0, -1.0, -1.0], [-1.0, -1.0, 1.0]]], [[[1.0, 1.0, 1.0], [1.0, 1.0, 1.0], [1.0, 1.0, 1.0]], [[-1.0, -1.0, 1.0], [-1.0, -1.0, -1.0], [-1.0, 1.0, 1.0]], [[-1.0, -1.0, -1.0], [-1.0, -1.0, -1.0], [-1.0, -1.0, -1.0]]], [[[1.0, 1.0, 1.0], [-1.0, -1.0, 1.0], [-1.0, -1.0, 1.0]], [[-1.0, -1.0, -1.0], [-1.0, -1.0, -1.0], [-1.0, -1.0, -1.0]], [[1.0, 1.0, 1.0], [-1.0, -1.0, 1.0], [-1.0, -1.0, 1.0]]], [[[-1.0, -1.0, 1.0], [-1.0, -1.0, 1.0], [1.0, 1.0, -1.0]], [[-1.0, 1.0, 1.0], [-1.0, 1.0, 1.0], [1.0, 1.0, -1.0]], [[-1.0, -1.0, 1.0], [-1.0, -1.0, 1.0], [1.0, 1.0, -1.0]]], [[[1.0, -1.0, 1.0], [-1.0, -1.0, 1.0], [1.0, 1.0, -1.0]], [[-1.0, -1.0, 1.0], [-1.0, -1.0, -1.0], [1.0, 1.0, -1.0]], [[-1.0, -1.0, 1.0], [-1.0, -1.0, -1.0], [-1.0, 1.0, -1.0]]], [[[1.0, 1.0, 1.0], [-1.0, 1.0, -1.0], [-1.0, 1.0, -1.0]], [[-1.0, -1.0, 1.0], [-1.0, -1.0, -1.0], [1.0, 1.0, -1.0]], [[-1.0, -1.0, 1.0], [1.0, 1.0, -1.0], [1.0, 1.0, 1.0]]], [[[-1.0, -1.0, -1.0], [1.0, 1.0, -1.0], [1.0, 1.0, 1.0]], [[-1.0, -1.0, -1.0], [1.0, 1.0, 1.0], [1.0, 1.0, 1.0]], [[-1.0, -1.0, -1.0], [-1.0, -1.0, 1.0], [1.0, 1.0, 1.0]]], [[[1.0, 1.0, 1.0], [1.0, -1.0, -1.0], [-1.0, -1.0, 1.0]], [[1.0, -1.0, -1.0], [1.0, -1.0, -1.0], [1.0, -1.0, 1.0]], [[1.0, -1.0, -1.0], [1.0, -1.0, -1.0], [1.0, 1.0, 1.0]]], [[[-1.0, -1.0, -1.0], [-1.0, 1.0, -1.0], [1.0, 1.0, 1.0]], [[1.0, 1.0, -1.0], [-1.0, 1.0, -1.0], [-1.0, 1.0, -1.0]], [[1.0, 1.0, -1.0], [-1.0, 1.0, -1.0], [-1.0, 1.0, -1.0]]], [[[-1.0, -1.0, -1.0], [-1.0, -1.0, -1.0], [-1.0, -1.0, -1.0]], [[1.0, 1.0, 1.0], [1.0, -1.0, 1.0], [1.0, -1.0, -1.0]], [[1.0, 1.0, 1.0], [1.0, 1.0, 1.0], [1.0, -1.0, 1.0]]], [[[-1.0, -1.0, -1.0], [-1.0, -1.0, -1.0], [-1.0, 1.0, 1.0]], [[1.0, 1.0, 1.0], [1.0, 1.0, 1.0], [-1.0, 1.0, 1.0]], [[1.0, 1.0, -1.0], [-1.0, 1.0, 1.0], [-1.0, 1.0, -1.0]]], [[[1.0, 1.0, 1.0], [1.0, -1.0, -1.0], [-1.0, -1.0, 1.0]], [[-1.0, -1.0, 1.0], [1.0, -1.0, -1.0], [-1.0, 1.0, 1.0]], [[1.0, -1.0, -1.0], [1.0, -1.0, -1.0], [1.0, 1.0, 1.0]]], [[[1.0, -1.0, -1.0], [-1.0, 1.0, 1.0], [-1.0, 1.0, 1.0]], [[1.0, -1.0, -1.0], [-1.0, -1.0, 1.0], [-1.0, 1.0, 1.0]], [[1.0, 1.0, -1.0], [-1.0, -1.0, 1.0], [-1.0, 1.0, 1.0]]], [[[-1.0, -1.0, 1.0], [1.0, -1.0, -1.0], [1.0, -1.0, -1.0]], [[1.0, 1.0, 1.0], [1.0, -1.0, -1.0], [1.0, 1.0, -1.0]], [[1.0, -1.0, 1.0], [1.0, -1.0, -1.0], [1.0, -1.0, -1.0]]], [[[-1.0, -1.0, 1.0], [1.0, 1.0, 1.0], [1.0, 1.0, -1.0]], [[-1.0, -1.0, 1.0], [-1.0, 1.0, -1.0], [1.0, 1.0, -1.0]], [[-1.0, 1.0, 1.0], [-1.0, 1.0, 1.0], [-1.0, 1.0, -1.0]]], [[[-1.0, 1.0, 1.0], [-1.0, 1.0, 1.0], [-1.0, -1.0, -1.0]], [[-1.0, 1.0, 1.0], [-1.0, 1.0, 1.0], [-1.0, -1.0, -1.0]], [[-1.0, 1.0, 1.0], [-1.0, 1.0, 1.0], [1.0, -1.0, -1.0]]], [[[1.0, -1.0, -1.0], [1.0, 1.0, 1.0], [-1.0, -1.0, 1.0]], [[1.0, -1.0, -1.0], [1.0, -1.0, 1.0], [-1.0, -1.0, 1.0]], [[1.0, -1.0, -1.0], [1.0, 1.0, 1.0], [-1.0, -1.0, 1.0]]], [[[-1.0, 1.0, 1.0], [-1.0, 1.0, 1.0], [1.0, -1.0, -1.0]], [[-1.0, 1.0, 1.0], [-1.0, 1.0, 1.0], [-1.0, -1.0, -1.0]], [[-1.0, 1.0, 1.0], [-1.0, 1.0, 1.0], [-1.0, -1.0, -1.0]]], [[[1.0, -1.0, -1.0], [-1.0, 1.0, 1.0], [-1.0, 1.0, 1.0]], [[-1.0, 1.0, -1.0], [-1.0, 1.0, 1.0], [-1.0, 1.0, 1.0]], [[-1.0, -1.0, -1.0], [-1.0, 1.0, 1.0], [-1.0, 1.0, 1.0]]], [[[1.0, 1.0, 1.0], [1.0, -1.0, 1.0], [-1.0, -1.0, -1.0]], [[1.0, -1.0, -1.0], [1.0, -1.0, -1.0], [-1.0, -1.0, -1.0]], [[1.0, -1.0, -1.0], [1.0, -1.0, 1.0], [1.0, -1.0, 1.0]]], [[[-1.0, -1.0, 1.0], [1.0, -1.0, 1.0], [1.0, 1.0, 1.0]], [[-1.0, -1.0, -1.0], [1.0, -1.0, 1.0], [-1.0, -1.0, -1.0]], [[1.0, 1.0, 1.0], [1.0, -1.0, 1.0], [1.0, -1.0, -1.0]]], [[[-1.0, 1.0, -1.0], [1.0, 1.0, 1.0], [1.0, -1.0, 1.0]], [[-1.0, 1.0, -1.0], [-1.0, 1.0, 1.0], [-1.0, -1.0, -1.0]], [[-1.0, 1.0, 1.0], [1.0, 1.0, 1.0], [-1.0, -1.0, -1.0]]], [[[-1.0, -1.0, -1.0], [1.0, 1.0, -1.0], [-1.0, 1.0, 1.0]], [[-1.0, 1.0, -1.0], [1.0, 1.0, -1.0], [-1.0, 1.0, -1.0]], [[1.0, 1.0, -1.0], [1.0, 1.0, -1.0], [-1.0, -1.0, -1.0]]], [[[1.0, 1.0, 1.0], [1.0, 1.0, 1.0], [-1.0, -1.0, -1.0]], [[1.0, -1.0, -1.0], [1.0, -1.0, 1.0], [1.0, -1.0, -1.0]], [[1.0, -1.0, -1.0], [1.0, -1.0, 1.0], [1.0, -1.0, -1.0]]], [[[1.0, 1.0, -1.0], [1.0, -1.0, 1.0], [-1.0, -1.0, 1.0]], [[1.0, -1.0, 1.0], [-1.0, -1.0, 1.0], [-1.0, -1.0, 1.0]], [[1.0, 1.0, 1.0], [-1.0, -1.0, 1.0], [-1.0, -1.0, 1.0]]], [[[1.0, 1.0, 1.0], [-1.0, 1.0, 1.0], [-1.0, -1.0, 1.0]], [[-1.0, -1.0, 1.0], [-1.0, -1.0, -1.0], [-1.0, -1.0, -1.0]], [[-1.0, 1.0, 1.0], [-1.0, 1.0, 1.0], [-1.0, -1.0, 1.0]]]], "features.1.weight": [0.6667405366897583, 1.7618486881256104, 0.9703438878059387, 1.4836472272872925, 2.101576328277588, 0.7877223491668701, 1.3076984882354736, 0.6725723743438721, 1.5304352045059204, -1.6855926513671875, 2.494502544403076, 1.4728376865386963, 0.8530280590057373, 1.5967273712158203, 1.0627089738845825, 1.3339284658432007, 0.6412688493728638, 1.3211883306503296, 1.2074434757232666, 0.8395336270332336, 0.8069800138473511, 1.2202380895614624, 1.687388300895691, 0.7828395962715149, 1.0303192138671875, 0.9845750331878662, 0.6690409183502197, 0.7940666079521179, 2.7496488094329834, 1.1803873777389526, 0.6571491956710815, 0.7320200800895691, 0.7801060080528259, 0.8648077845573425, 1.0550448894500732, 0.7499691843986511, 1.5165573358535767, 0.8520609140396118, 0.7624841928482056, 1.2818431854248047, 1.3611516952514648, 1.0380256175994873, 1.3376468420028687, 0.7273445129394531, 2.1747019290924072, 0.9327747821807861, 0.6556091904640198, 1.4242068529129028, 1.7676990032196045, 0.760694682598114, 1.124638319015503, 1.1941306591033936, 0.6642201542854309, 1.160144329071045, 0.9832512140274048, 1.7810717821121216, 1.7007824182510376, 0.5785940885543823, 0.5981005430221558, 0.6074762940406799, 0.833768904209137, 1.0530363321304321, 1.3013311624526978, 1.7681667804718018], "features.1.bias": [0.0037461931351572275, 0.03518204018473625, 0.008744615130126476, -0.07337896525859833, -1.1440722942352295, 0.11820342391729355, 0.8919706344604492, -0.03192596137523651, -1.3156334161758423, -1.4825153350830078, -1.3987696170806885, 0.7927756905555725, -0.048209987580776215, 1.0339819192886353, 0.09450994431972504, 1.212481141090393, 0.06568396836519241, 0.05981656163930893, 0.1472969353199005, -0.20361793041229248, -0.04741945490241051, -0.18840359151363373, -1.770393967628479, -0.020537864416837692, -0.4152947962284088, -0.07999605685472488, 0.010575256310403347, -0.038593750447034836, -1.0971839427947998, -0.12521404027938843, -0.0024556315038353205, -0.01588817499577999, -0.09329906851053238, -0.05044768005609512, -0.1384616196155548, -0.03005070984363556, -2.108323335647583, 0.08796858787536621, -0.03539389371871948, 0.14943796396255493, -1.178375482559204, 0.03567875921726227, 1.1489914655685425, -0.05500634387135506, 2.5210304260253906, -0.04016583785414696, 0.006420882884413004, -1.0119668245315552, 1.531487226486206, 0.005989832803606987, 0.032134804874658585, 0.02321467362344265, -0.01699245162308216, 0.08107991516590118, -0.06493375450372696, -0.25307056307792664, 1.184193730354309, 0.08894297480583191, -0.08691135048866272, -0.009724815376102924, 0.038190681487321854, 0.23789875209331512, -0.04306761920452118, -1.217040777206421], "features.1.running_mean": [-354.2959899902344, 134.80165100097656, -104.97494506835938, 332.0714416503906, -109.3449478149414, -317.15911865234375, 356.0557556152344, -105.5184555053711, -343.3457336425781, 114.08297729492188, 119.39937591552734, 343.91387939453125, -125.31111907958984, -119.91632080078125, -112.28221893310547, -890.3607177734375, -90.06910705566406, -110.86278533935547, -103.62079620361328, -670.376220703125, 133.0424041748047, -253.58743286132812, -579.2769775390625, 106.01469421386719, -304.30072021484375, -136.67041015625, -106.26165008544922, 111.95551300048828, 118.80878448486328, -411.7087097167969, -104.55262756347656, -355.51080322265625, -142.19857788085938, 98.48033905029297, 103.90721893310547, -124.17154693603516, 170.65000915527344, -116.00452423095703, 364.67266845703125, -230.20582580566406, -848.026123046875, 127.0801773071289, -786.2835693359375, 89.21983337402344, 370.83544921875, 110.7175521850586, -354.4322204589844, 12.900933265686035, 333.6212463378906, 111.08512878417969, 113.1796875, -119.7140121459961, 362.6405944824219, -132.03826904296875, 113.4576644897461, -101.77024841308594, 132.76063537597656, -369.24920654296875, 101.04236602783203, 123.49580383300781, -354.0693664550781, 142.76161193847656, 117.62908172607422, -358.3866271972656], "features.1.running_var": [51581.8046875, 73807.828125, 33759.74609375, 89978.1875, 87877.7890625, 65593.421875, 79283.2265625, 23137.912109375, 58411.1875, 84952.7109375, 115376.5234375, 104421.140625, 21438.576171875, 77147.609375, 33173.44921875, 211120.03125, 24531.1484375, 76362.0078125, 75423.65625, 123993.421875, 26600.22265625, 149336.4375, 169406.09375, 29482.98828125, 57681.1640625, 32894.1953125, 24481.62890625, 16125.44140625, 99520.875, 74322.6953125, 20670.97265625, 47733.30859375, 29858.2109375, 21617.130859375, 41525.578125, 22657.490234375, 111356.5703125, 26294.396484375, 37096.59375, 186090.375, 213950.578125, 37276.12109375, 199753.921875, 17801.564453125, 133507.34375, 33081.74609375, 42551.98828125, 133582.203125, 71054.3203125, 14189.4541015625, 35528.125, 52152.3359375, 53111.85546875, 75573.1953125, 27361.767578125, 75335.0390625, 66062.265625, 64583.5546875, 18813.701171875, 31291.0078125, 43933.21484375, 45139.73828125, 52098.52734375, 98614.6484375], "features.1.num_batches_tracked": 156400, "features.3.weight": [[[[-1.0, -1.0, 1.0], [-1.0, 1.0, 1.0], [-1.0, -1.0, 1.0]], [[-1.0, -1.0, 1.0], [1.0, -1.0, -1.0], [1.0, -1.0, 1.0]], [[-1.0, -1.0, 1.0], [1.0, -1.0, 1.0], [1.0, -1.0, -1.0]], [[1.0, -1.0, -1.0], [1.0, -1.0, -1.0], [1.0, 1.0, 1.0]], [[-1.0, 1.0, 1.0], [1.0, -1.0, 1.0], [-1.0, -1.0, 1.0]], [[-1.0, -1.0, 1.0], [1.0, -1.0, 1.0], [1.0, -1.0, 1.0]], [[1.0, 1.0, -1.0], [1.0, 1.0, -1.0], [-1.0, 1.0, -1.0]], [[-1.0, -1.0, 1.0], [1.0, -1.0, 1.0], [1.0, 1.0, -1.0]], [[-1.0, -1.0, -1.0], [1.0, -1.0, -1.0], [1.0, 1.0, -1.0]], [[1.0, 1.0, 1.0], [-1.0, 1.0, -1.0], [1.0, 1.0, -1.0]], [[1.0, -1.0, -1.0], [-1.0, -1.0, -1.0], [-1.0, -1.0, -1.0]], [[-1.0, 1.0, 1.0], [-1.0, -1.0, 1.0], [-1.0, -1.0, -1.0]], [[1.0, -1.0, -1.0], [1.0, -1.0, -1.0], [1.0, 1.0, -1.0]], [[-1.0, -1.0, 1.0], [-1.0, -1.0, -1.0], [-1.0, -1.0, -1.0]], [[1.0, -1.0, 1.0], [1.0, -1.0, -1.0], [1.0, -1.0, -1.0]], [[-1.0, -1.0, -1.0], [-1.0, -1.0, 1.0], [1.0, 1.0, 1.0]], [[1.0, -1.0, 1.0], [1.0, -1.0, -1.0], [1.0, 1.0, -1.0]], [[1.0, -1.0, -1.0], [1.0, -1.0, -1.0], [1.0, 1.0, -1.0]], [[1.0, -1.0, -1.0], [1.0, -1.0, -1.0], [1.0, -1.0, -1.0]], [[-1.0, 1.0, -1.0], [-1.0, 1.0, 1.0], [1.0, 1.0, 1.0]], [[1.0, 1.0, -1.0], [1.0, -1.0, -1.0], [-1.0, 1.0, -1.0]], [[-1.0, 1.0, 1.0], [-1.0, 1.0, 1.0], [-1.0, 1.0, 1.0]], [[1.0, -1.0, -1.0], [1.0, -1.0, -1.0], [1.0, 1.0, 1.0]], [[-1.0, 1.0, -1.0], [-1.0, 1.0, 1.0], [-1.0, 1.0, 1.0]], [[1.0, 1.0, 1.0], [1.0, -1.0, 1.0], [1.0, -1.0, 1.0]], [[1.0, 1.0, -1.0], [-1.0, 1.0, -1.0], [-1.0, 1.0, 1.0]], [[1.0, 1.0, -1.0], [1.0, -1.0, -1.0], [1.0, 1.0, -1.0]], [[1.0, 1.0, 1.0], [1.0, -1.0, -1.0], [-1.0, -1.0, -1.0]], [[-1.0, -1.0, -1.0], [1.0, -1.0, -1.0], [1.0, 1.0, -1.0]], [[1.0, 1.0, 1.0], [1.0, 1.0, 1.0], [1.0, 1.0, 1.0]], [[1.0, -1.0, -1.0], [1.0, -1.0, -1.0], [1.0, -1.0, 1.0]], [[-1.0, 1.0, 1.0], [-1.0, 1.0, -1.0], [-1.0, 1.0, 1.0]], [[-1.0, 1.0, 1.0], [-1.0, -1.0, 1.0], [1.0, -1.0, -1.0]], [[1.0, 1.0, -1.0], [-1.0, 1.0, 1.0], [-1.0, 1.0, 1.0]], [[-1.0, 1.0, -1.0], [-1.0, 1.0, -1.0], [-1.0, 1.0, 1.0]], [[1.0, -1.0, -1.0], [1.0, -1.0, -1.0], [1.0, 1.0, -1.0]], [[1.0, 1.0, 1.0], [-1.0, -1.0, 1.0], [-1.0, -1.0, -1.0]], [[1.0, 1.0, -1.0], [1.0, -1.0, -1.0], [1.0, -1.0, -1.0]], [[1.0, 1.0, -1.0], [-1.0, -1.0, -1.0], [1.0, 1.0, -1.0]], [[1.0, 1.0, 1.0], [1.0, -1.0, 1.0], [-1.0, 1.0, 1.0]], [[1.0, 1.0, 1.0], [1.0, 1.0, 1.0], [1.0, -1.0, 1.0]], [[-1.0, -1.0, 1.0], [1.0, -1.0, -1.0], [-1.0, 1.0, 1.0]], [[-1.0, -1.0, -1.0], [1.0, 1.0, -1.0], [1.0, 1.0, 1.0]], [[1.0, 1.0, -1.0], [1.0, -1.0, -1.0], [1.0, -1.0, -1.0]], [[-1.0, -1.0, -1.0], [1.0, 1.0, -1.0], [1.0, 1.0, 1.0]], [[-1.0, 1.0, 1.0], [-1.0, 1.0, 1.0], [-1.0, -1.0, 1.0]], [[-1.0, -1.0, 1.0], [-1.0, -1.0, 1.0], [1.0, 1.0, 1.0]], [[-1.0, 1.0, 1.0], [-1.0, 1.0, 1.0], [-1.0, 1.0, -1.0]], [[-1.0, -1.0, -1.0], [-1.0, -1.0, -1.0], [1.0, -1.0, -1.0]], [[-1.0, 1.0, 1.0], [-1.0, 1.0, 1.0], [-1.0, 1.0, 1.0]], [[-1.0, 1.0, -1.0], [-1.0, 1.0, 1.0], [-1.0, -1.0, -1.0]], [[1.0, 1.0, -1.0], [1.0, 1.0, -1.0], [1.0, 1.0, -1.0]], [[1.0, 1.0, -1.0], [1.0, -1.0, -1.0], [1.0, 1.0, -1.0]], [[-1.0, -1.0, 1.0], [-1.0, 1.0, 1.0], [-1.0, -1.0, 1.0]], [[-1.0, 1.0, -1.0], [-1.0, 1.0, -1.0], [-1.0, -1.0, 1.0]], [[-1.0, 1.0, 1.0], [-1.0, 1.0, 1.0], [-1.0, -1.0, 1.0]], [[1.0, -1.0, 1.0], [-1.0, -1.0, 1.0], [-1.0, -1.0, -1.0]], [[1.0, 1.0, 1.0], [-1.0, 1.0, -1.0], [-1.0, -1.0, -1.0]], [[-1.0, -1.0, -1.0], [-1.0, 1.0, 1.0], [-1.0, 1.0, 1.0]], [[1.0, -1.0, 1.0], [1.0, -1.0, 1.0], [1.0, -1.0, 1.0]], [[-1.0, -1.0, -1.0], [1.0, -1.0, -1.0], [1.0, -1.0, 1.0]], [[-1.0, -1.0, -1.0], [-1.0, 1.0, -1.0], [-1.0, -1.0, 1.0]], [[-1.0, 1.0, 1.0], [-1.0, 1.0, 1.0], [-1.0, 1.0, 1.0]], [[-1.0, 1.0, 1.0], [-1.0, -1.0, 1.0], [-1.0, -1.0, 1.0]]], [[[-1.0, 1.0, 1.0], [1.0, -1.0, -1.0], [-1.0, 1.0, 1.0]], [[1.0, -1.0, -1.0], [-1.0, -1.0, -1.0], [1.0, 1.0, 1.0]], [[-1.0, -1.0, 1.0], [1.0, -1.0, -1.0], [1.0, 1.0, 1.0]], [[-1.0, 1.0, 1.0], [1.0, 1.0, 1.0], [-1.0, -1.0, -1.0]], [[1.0, -1.0, 1.0], [1.0, 1.0, 1.0], [-1.0, -1.0, -1.0]], [[-1.0, 1.0, 1.0], [-1.0, -1.0, -1.0], [-1.0, 1.0, 1.0]], [[-1.0, 1.0, -1.0], [-1.0, -1.0, -1.0], [1.0, 1.0, 1.0]], [[-1.0, -1.0, 1.0], [1.0, 1.0, 1.0], [-1.0, -1.0, -1.0]], [[1.0, 1.0, -1.0], [1.0, 1.0, 1.0], [-1.0, -1.0, 1.0]], [[-1.0, -1.0, -1.0], [-1.0, -1.0, -1.0], [-1.0, 1.0, 1.0]], [[-1.0, -1.0, -1.0], [-1.0, -1.0, -1.0], [1.0, 1.0, 1.0]], [[-1.0, -1.0, -1.0], [-1.0, -1.0, -1.0], [-1.0, 1.0, 1.0]], [[-1.0, 1.0, 1.0], [1.0, -1.0, -1.0], [-1.0, -1.0, 1.0]], [[-1.0, -1.0, -1.0], [1.0, 1.0, 1.0], [1.0, 1.0, 1.0]], [[-1.0, -1.0, -1.0], [1.0, -1.0, -1.0], [-1.0, 1.0, 1.0]], [[1.0, 1.0, 1.0], [-1.0, -1.0, -1.0], [-1.0, -1.0, -1.0]], [[1.0, 1.0, -1.0], [-1.0, -1.0, -1.0], [1.0, 1.0, -1.0]], [[1.0, -1.0, -1.0], [1.0, 1.0, 1.0], [1.0, 1.0, -1.0]], [[-1.0, 1.0, -1.0], [-1.0, -1.0, -1.0], [1.0, 1.0, 1.0]], [[-1.0, -1.0, -1.0], [-1.0, -1.0, 1.0], [-1.0, 1.0, 1.0]], [[-1.0, 1.0, 1.0], [1.0, 1.0, 1.0], [-1.0, -1.0, -1.0]], [[-1.0, -1.0, -1.0], [-1.0, -1.0, 1.0], [1.0, 1.0, 1.0]], [[1.0, 1.0, 1.0], [1.0, 1.0, 1.0], [1.0, -1.0, -1.0]], [[-1.0, -1.0, -1.0], [-1.0, 1.0, 1.0], [1.0, 1.0, -1.0]], [[-1.0, -1.0, -1.0], [1.0, 1.0, 1.0], [1.0, 1.0, 1.0]], [[-1.0, -1.0, 1.0], [1.0, 1.0, -1.0], [-1.0, -1.0, 1.0]], [[1.0, -1.0, 1.0], [1.0, 1.0, 1.0], [-1.0, -1.0, -1.0]], [[-1.0, -1.0, 1.0], [1.0, 1.0, -1.0], [1.0, -1.0, 1.0]], [[-1.0, -1.0, -1.0], [-1.0, -1.0, -1.0], [1.0, 1.0, 1.0]], [[-1.0, -1.0, -1.0], [-1.0, -1.0, -1.0], [1.0, 1.0, -1.0]], [[-1.0, -1.0, -1.0], [-1.0, -1.0, -1.0], [1.0, 1.0, 1.0]], [[1.0, 1.0, 1.0], [1.0, -1.0, 1.0], [-1.0, -1.0, -1.0]], [[-1.0, -1.0, 1.0], [1.0, 1.0, -1.0], [-1.0, -1.0, 1.0]], [[1.0, 1.0, 1.0], [-1.0, -1.0, 1.0], [-1.0, -1.0, -1.0]], [[-1.0, -1.0, 1.0], [1.0, 1.0, 1.0], [1.0, -1.0, -1.0]], [[-1.0, -1.0, -1.0], [-1.0, -1.0, -1.0], [1.0, 1.0, 1.0]], [[-1.0, -1.0, -1.0], [-1.0, -1.0, -1.0], [1.0, 1.0, -1.0]], [[-1.0, -1.0, 1.0], [1.0, 1.0, 1.0], [-1.0, -1.0, 1.0]], [[1.0, 1.0, 1.0], [1.0, -1.0, -1.0], [-1.0, -1.0, -1.0]], [[1.0, 1.0, 1.0], [1.0, -1.0, -1.0], [-1.0, -1.0, -1.0]], [[-1.0, 1.0, 1.0], [-1.0, -1.0, -1.0], [-1.0, -1.0, -1.0]], [[-1.0, 1.0, 1.0], [1.0, 1.0, 1.0], [1.0, -1.0, -1.0]], [[1.0, 1.0, 1.0], [1.0, 1.0, -1.0], [1.0, -1.0, -1.0]], [[1.0, -1.0, 1.0], [-1.0, 1.0, 1.0], [1.0, -1.0, -1.0]], [[1.0, 1.0, 1.0], [-1.0, -1.0, 1.0], [-1.0, -1.0, -1.0]], [[1.0, 1.0, 1.0], [1.0, -1.0, 1.0], [-1.0, -1.0, 1.0]], [[1.0, 1.0, 1.0], [1.0, -1.0, -1.0], [-1.0, -1.0, -1.0]], [[-1.0, -1.0, -1.0], [-1.0, -1.0, -1.0], [1.0, 1.0, 1.0]], [[-1.0, -1.0, -1.0], [1.0, 1.0, 1.0], [1.0, 1.0, 1.0]], [[1.0, 1.0, 1.0], [1.0, -1.0, -1.0], [-1.0, -1.0, 1.0]], [[-1.0, 1.0, 1.0], [1.0, 1.0, -1.0], [-1.0, -1.0, 1.0]], [[1.0, 1.0, -1.0], [-1.0, -1.0, -1.0], [1.0, 1.0, -1.0]], [[-1.0, -1.0, 1.0], [-1.0, 1.0, 1.0], [1.0, 1.0, -1.0]], [[-1.0, -1.0, -1.0], [-1.0, -1.0, 1.0], [1.0, 1.0, 1.0]], [[-1.0, -1.0, -1.0], [1.0, -1.0, -1.0], [1.0, 1.0, 1.0]], [[1.0, -1.0, -1.0], [-1.0, -1.0, -1.0], [1.0, 1.0, 1.0]], [[1.0, -1.0, 1.0], [1.0, 1.0, 1.0], [1.0, 1.0, 1.0]], [[-1.0, 1.0, 1.0], [1.0, -1.0, -1.0], [1.0, -1.0, 1.0]], [[-1.0, -1.0, -1.0], [-1.0, -1.0, -1.0], [1.0, 1.0, 1.0]], [[1.0, -1.0, -1.0], [-1.0, -1.0, -1.0], [1.0, 1.0, 1.0]], [[1.0, -1.0, -1.0], [-1.0, -1.0, -1.0], [-1.0, 1.0, 1.0]], [[-1.0, -1.0, 1.0], [-1.0, -1.0, -1.0], [1.0, 1.0, -1.0]], [[-1.0, 1.0, 1.0], [-1.0, -1.0, -1.0], [-1.0, 1.0, 1.0]], [[1.0, 1.0, -1.0], [-1.0, -1.0, -1.0], [-1.0, 1.0, 1.0]]], [[[1.0, -1.0, 1.0], [1.0, -1.0, 1.0], [1.0, 1.0, -1.0]], [[-1.0, -1.0, -1.0], [1.0, -1.0, -1.0], [-1.0, -1.0, -1.0]], [[1.0, -1.0, -1.0], [1.0, 1.0, -1.0], [-1.0, 1.0, -1.0]], [[-1.0, -1.0, -1.0], [-1.0, -1.0, -1.0], [-1.0, -1.0, -1.0]], [[1.0, 1.0, 1.0], [1.0, 1.0, 1.0], [1.0, 1.0, 1.0]], [[1.0, 1.0, -1.0], [1.0, 1.0, 1.0], [1.0, 1.0, 1.0]], [[-1.0, -1.0, -1.0], [-1.0, -1.0, -1.0], [-1.0, -1.0, -1.0]], [[-1.0, 1.0, -1.0], [-1.0, 1.0, -1.0], [-1.0, 1.0, -1.0]], [[1.0, 1.0, 1.0], [-1.0, 1.0, 1.0], [1.0, 1.0, 1.0]], [[1.0, -1.0, 1.0], [1.0, -1.0, 1.0], [1.0, -1.0, 1.0]], [[1.0, 1.0, -1.0], [1.0, -1.0, -1.0], [-1.0, -1.0, -1.0]], [[-1.0, -1.0, 1.0], [-1.0, 1.0, 1.0], [-1.0, 1.0, 1.0]], [[-1.0, -1.0, 1.0], [1.0, 1.0, -1.0], [1.0, 1.0, -1.0]], [[1.0, 1.0, 1.0], [-1.0, 1.0, 1.0], [-1.0, 1.0, 1.0]], [[1.0, -1.0, -1.0], [1.0, -1.0, -1.0], [-1.0, -1.0, -1.0]], [[1.0, 1.0, 1.0], [1.0, 1.0, 1.0], [1.0, 1.0, 1.0]], [[1.0, 1.0, -1.0], [1.0, -1.0, -1.0], [1.0, -1.0, -1.0]], [[-1.0, -1.0, 1.0], [-1.0, -1.0, -1.0], [-1.0, -1.0, -1.0]], [[-1.0, -1.0, -1.0], [-1.0, -1.0, -1.0], [-1.0, -1.0, -1.0]], [[-1.0, -1.0, -1.0], [-1.0, -1.0, 1.0], [-1.0, 1.0, 1.0]], [[1.0, -1.0, -1.0], [1.0, -1.0, -1.0], [-1.0, -1.0, 1.0]], [[-1.0, -1.0, 1.0], [-1.0, 1.0, 1.0], [-1.0, 1.0, 1.0]], [[-1.0, -1.0, 1.0], [-1.0, -1.0, -1.0], [1.0, -1.0, -1.0]], [[-1.0, 1.0, 1.0], [-1.0, -1.0, 1.0], [-1.0, 1.0, 1.0]], [[-1.0, -1.0, -1.0], [-1.0, -1.0, -1.0], [1.0, -1.0, -1.0]], [[-1.0, -1.0, -1.0], [1.0, -1.0, -1.0], [-1.0, -1.0, 1.0]], [[1.0, 1.0, -1.0], [1.0, 1.0, -1.0], [-1.0, 1.0, -1.0]], [[-1.0, -1.0, 1.0], [-1.0, 1.0, 1.0], [1.0, 1.0, -1.0]], [[-1.0, -1.0, -1.0], [-1.0, -1.0, -1.0], [-1.0, -1.0, -1.0]], [[1.0, -1.0, -1.0], [1.0, -1.0, -1.0], [1.0, 1.0, -1.0]], [[1.0, 1.0, -1.0], [-1.0, 1.0, -1.0], [-1.0, 1.0, 1.0]], [[1.0, -1.0, 1.0], [1.0, -1.0, -1.0], [1.0, -1.0, -1.0]], [[-1.0, 1.0, 1.0], [-1.0, 1.0, 1.0], [1.0, 1.0, -1.0]], [[1.0, -1.0, -1.0], [-1.0, -1.0, -1.0], [-1.0, -1.0, 1.0]], [[1.0, 1.0, -1.0], [1.0, -1.0, -1.0], [-1.0, -1.0, -1.0]], [[-1.0, 1.0, 1.0], [-1.0, 1.0, -1.0], [-1.0, 1.0, -1.0]], [[-1.0, 1.0, -1.0], [-1.0, -1.0, -1.0], [-1.0, -1.0, -1.0]], [[-1.0, 1.0, 1.0], [-1.0, 1.0, 1.0], [1.0, 1.0, 1.0]], [[1.0, -1.0, -1.0], [1.0, -1.0, -1.0], [1.0, -1.0, -1.0]], [[1.0, 1.0, 1.0], [1.0, 1.0, -1.0], [1.0, 1.0, -1.0]], [[1.0, 1.0, -1.0], [1.0, -1.0, 1.0], [1.0, 1.0, -1.0]], [[1.0, 1.0, 1.0], [1.0, 1.0, 1.0], [1.0, 1.0, 1.0]], [[1.0, 1.0, 1.0], [1.0, 1.0, 1.0], [1.0, 1.0, -1.0]], [[-1.0, -1.0, 1.0], [1.0, 1.0, -1.0], [-1.0, 1.0, -1.0]], [[-1.0, -1.0, 1.0], [-1.0, 1.0, 1.0], [1.0, 1.0, 1.0]], [[1.0, -1.0, -1.0], [-1.0, -1.0, -1.0], [-1.0, -1.0, -1.0]], [[1.0, 1.0, -1.0], [-1.0, 1.0, 1.0], [-1.0, -1.0, -1.0]], [[-1.0, -1.0, 1.0], [-1.0, -1.0, 1.0], [-1.0, 1.0, 1.0]], [[-1.0, -1.0, 1.0], [-1.0, -1.0, 1.0], [-1.0, 1.0, 1.0]], [[-1.0, -1.0, -1.0], [1.0, 1.0, 1.0], [1.0, -1.0, -1.0]], [[1.0, -1.0, 1.0], [-1.0, 1.0, 1.0], [1.0, 1.0, -1.0]], [[1.0, -1.0, -1.0], [1.0, -1.0, -1.0], [-1.0, -1.0, -1.0]], [[-1.0, 1.0, -1.0], [-1.0, 1.0, 1.0], [-1.0, 1.0, 1.0]], [[-1.0, -1.0, 1.0], [1.0, 1.0, 1.0], [1.0, 1.0, 1.0]], [[1.0, 1.0, -1.0], [1.0, -1.0, 1.0], [1.0, -1.0, -1.0]], [[1.0, 1.0, 1.0], [1.0, 1.0, 1.0], [1.0, 1.0, 1.0]], [[-1.0, 1.0, 1.0], [-1.0, 1.0, 1.0], [-1.0, 1.0, 1.0]], [[-1.0, -1.0, 1.0], [-1.0, 1.0, -1.0], [-1.0, -1.0, -1.0]], [[-1.0, -1.0, -1.0], [-1.0, -1.0, -1.0], [-1.0, -1.0, 1.0]], [[-1.0, 1.0, 1.0], [-1.0, 1.0, 1.0], [-1.0, 1.0, 1.0]], [[1.0, -1.0, -1.0], [1.0, -1.0, -1.0], [-1.0, -1.0, -1.0]], [[1.0, 1.0, -1.0], [-1.0, -1.0, -1.0], [-1.0, -1.0, -1.0]], [[-1.0, 1.0, -1.0], [1.0, 1.0, 1.0], [1.0, 1.0, 1.0]], [[1.0, 1.0, 1.0], [1.0, 1.0, 1.0], [1.0, 1.0, 1.0]]], [[[1.0, 1.0, 1.0], [-1.0, -1.0, 1.0], [-1.0, -1.0, 1.0]], [[-1.0, 1.0, 1.0], [1.0, 1.0, -1.0], [-1.0, -1.0, -1.0]], [[-1.0, -1.0, 1.0], [-1.0, -1.0, 1.0], [1.0, 1.0, -1.0]], [[-1.0, -1.0, -1.0], [-1.0, 1.0, 1.0], [1.0, 1.0, 1.0]], [[1.0, 1.0, 1.0], [-1.0, -1.0, 1.0], [-1.0, -1.0, 1.0]], [[1.0, -1.0, -1.0], [-1.0, 1.0, -1.0], [1.0, -1.0, -1.0]], [[-1.0, -1.0, -1.0], [1.0, 1.0, -1.0], [1.0, 1.0, 1.0]], [[-1.0, -1.0, -1.0], [-1.0, -1.0, 1.0], [1.0, 1.0, 1.0]], [[1.0, -1.0, 1.0], [1.0, -1.0, -1.0], [-1.0, -1.0, -1.0]], [[1.0, 1.0, 1.0], [-1.0, -1.0, -1.0], [-1.0, -1.0, -1.0]], [[1.0, 1.0, -1.0], [-1.0, 1.0, 1.0], [-1.0, -1.0, -1.0]], [[1.0, 1.0, -1.0], [1.0, 1.0, -1.0], [1.0, 1.0, 1.0]], [[1.0, -1.0, -1.0], [1.0, 1.0, -1.0], [1.0, 1.0, -1.0]], [[-1.0, -1.0, -1.0], [-1.0, -1.0, -1.0], [-1.0, -1.0, -1.0]], [[-1.0, -1.0, -1.0], [-1.0, 1.0, -1.0], [1.0, 1.0, 1.0]], [[1.0, 1.0, 1.0], [1.0, 1.0, 1.0], [1.0, 1.0, 1.0]], [[-1.0, -1.0, -1.0], [1.0, -1.0, -1.0], [1.0, 1.0, -1.0]], [[-1.0, 1.0, 1.0], [-1.0, -1.0, -1.0], [-1.0, -1.0, -1.0]], [[-1.0, -1.0, -1.0], [1.0, 1.0, -1.0], [1.0, 1.0, -1.0]], [[1.0, 1.0, 1.0], [1.0, 1.0, 1.0], [1.0, 1.0, 1.0]], [[-1.0, 1.0, 1.0], [-1.0, 1.0, 1.0], [-1.0, -1.0, 1.0]], [[1.0, 1.0, 1.0], [1.0, 1.0, 1.0], [1.0, 1.0, 1.0]], [[1.0, 1.0, 1.0], [-1.0, 1.0, 1.0], [1.0, 1.0, -1.0]], [[-1.0, 1.0, 1.0], [-1.0, -1.0, 1.0], [-1.0, 1.0, 1.0]], [[-1.0, -1.0, -1.0], [-1.0, -1.0, -1.0], [-1.0, -1.0, -1.0]], [[1.0, 1.0, -1.0], [1.0, -1.0, -1.0], [1.0, 1.0, 1.0]], [[1.0, -1.0, -1.0], [1.0, -1.0, -1.0], [1.0, 1.0, -1.0]], [[1.0, 1.0, 1.0], [1.0, -1.0, -1.0], [-1.0, -1.0, -1.0]], [[1.0, -1.0, -1.0], [1.0, 1.0, -1.0], [1.0, 1.0, 1.0]], [[1.0, 1.0, 1.0], [1.0, 1.0, 1.0], [1.0, 1.0, 1.0]], [[-1.0, -1.0, -1.0], [-1.0, -1.0, 1.0], [1.0, 1.0, 1.0]], [[1.0, 1.0, -1.0], [1.0, 1.0, 1.0], [1.0, -1.0, -1.0]], [[1.0, 1.0, 1.0], [1.0, 1.0, -1.0], [1.0, 1.0, 1.0]], [[1.0, 1.0, -1.0], [1.0, 1.0, -1.0], [1.0, 1.0, 1.0]], [[-1.0, -1.0, -1.0], [-1.0, -1.0, 1.0], [1.0, 1.0, 1.0]], [[1.0, -1.0, -1.0], [1.0, -1.0, -1.0], [1.0, 1.0, 1.0]], [[-1.0, -1.0, -1.0], [-1.0, -1.0, -1.0], [-1.0, -1.0, -1.0]], [[1.0, 1.0, 1.0], [1.0, -1.0, -1.0], [-1.0, -1.0, -1.0]], [[1.0, -1.0, -1.0], [1.0, -1.0, -1.0], [1.0, 1.0, 1.0]], [[-1.0, -1.0, -1.0], [-1.0, -1.0, -1.0], [-1.0, -1.0, -1.0]], [[-1.0, -1.0, -1.0], [-1.0, -1.0, -1.0], [1.0, -1.0, -1.0]], [[1.0, 1.0, -1.0], [-1.0, -1.0, 1.0], [-1.0, -1.0, -1.0]], [[1.0, 1.0, 1.0], [1.0, 1.0, 1.0], [1.0, 1.0, 1.0]], [[1.0, 1.0, 1.0], [-1.0, 1.0, 1.0], [-1.0, -1.0, -1.0]], [[-1.0, -1.0, -1.0], [-1.0, -1.0, -1.0], [-1.0, -1.0, -1.0]], [[1.0, 1.0, 1.0], [1.0, 1.0, 1.0], [-1.0, -1.0, -1.0]], [[-1.0, -1.0, -1.0], [-1.0, -1.0, 1.0], [1.0, 1.0, 1.0]], [[1.0, 1.0, 1.0], [1.0, 1.0, 1.0], [-1.0, -1.0, -1.0]], [[1.0, 1.0, 1.0], [1.0, 1.0, 1.0], [1.0, 1.0, 1.0]], [[-1.0, 1.0, 1.0], [-1.0, 1.0, 1.0], [-1.0, -1.0, -1.0]], [[-1.0, 1.0, 1.0], [-1.0, -1.0, -1.0], [1.0, 1.0, -1.0]], [[-1.0, -1.0, -1.0], [-1.0, 1.0, 1.0], [1.0, 1.0, -1.0]], [[1.0, -1.0, -1.0], [1.0, 1.0, -1.0], [1.0, 1.0, 1.0]], [[-1.0, 1.0, 1.0], [-1.0, 1.0, 1.0], [-1.0, 1.0, 1.0]], [[-1.0, 1.0, 1.0], [1.0, -1.0, -1.0], [1.0, -1.0, 1.0]], [[1.0, -1.0, -1.0], [-1.0, -1.0, 1.0], [-1.0, -1.0, -1.0]], [[-1.0, -1.0, -1.0], [-1.0, 1.0, -1.0], [-1.0, 1.0, 1.0]], [[1.0, 1.0, -1.0], [1.0, 1.0, -1.0], [-1.0, 1.0, 1.0]], [[-1.0, -1.0, 1.0], [1.0, 1.0, 1.0], [1.0, 1.0, 1.0]], [[-1.0, -1.0, -1.0], [1.0, -1.0, -1.0], [1.0, 1.0, -1.0]], [[-1.0, -1.0, -1.0], [-1.0, 1.0, -1.0], [1.0, 1.0, 1.0]], [[-1.0, -1.0, 1.0], [-1.0, -1.0, -1.0], [-1.0, -1.0, -1.0]], [[1.0, -1.0, -1.0], [1.0, 1.0, -1.0], [1.0, 1.0, 1.0]], [[1.0, 1.0, 1.0], [1.0, 1.0, 1.0], [1.0, 1.0, 1.0]]], [[[1.0, 1.0, 1.0], [-1.0, 1.0, -1.0], [-1.0, -1.0, 1.0]], [[1.0, 1.0, 1.0], [-1.0, -1.0, -1.0], [-1.0, 1.0, -1.0]], [[1.0, -1.0, 1.0], [-1.0, 1.0, 1.0], [-1.0, -1.0, -1.0]], [[-1.0, -1.0, -1.0], [1.0, 1.0, 1.0], [1.0, 1.0, 1.0]], [[-1.0, -1.0, -1.0], [1.0, -1.0, 1.0], [1.0, 1.0, 1.0]], [[1.0, 1.0, -1.0], [1.0, 1.0, 1.0], [-1.0, -1.0, -1.0]], [[1.0, 1.0, 1.0], [-1.0, -1.0, 1.0], [1.0, -1.0, 1.0]], [[-1.0, -1.0, 1.0], [1.0, 1.0, 1.0], [-1.0, -1.0, -1.0]], [[-1.0, -1.0, -1.0], [1.0, 1.0, 1.0], [1.0, -1.0, 1.0]], [[-1.0, -1.0, 1.0], [-1.0, -1.0, -1.0], [-1.0, -1.0, -1.0]], [[1.0, 1.0, 1.0], [-1.0, 1.0, 1.0], [-1.0, -1.0, -1.0]], [[1.0, 1.0, 1.0], [-1.0, 1.0, -1.0], [-1.0, -1.0, -1.0]], [[-1.0, -1.0, -1.0], [1.0, 1.0, 1.0], [1.0, -1.0, 1.0]], [[1.0, -1.0, -1.0], [1.0, -1.0, -1.0], [1.0, 1.0, 1.0]], [[-1.0, -1.0, -1.0], [-1.0, -1.0, 1.0], [1.0, 1.0, 1.0]], [[-1.0, -1.0, 1.0], [-1.0, 1.0, 1.0], [-1.0, -1.0, 1.0]], [[-1.0, -1.0, 1.0], [-1.0, -1.0, 1.0], [1.0, 1.0, -1.0]], [[-1.0, -1.0, -1.0], [-1.0, -1.0, -1.0], [1.0, 1.0, -1.0]], [[1.0, 1.0, 1.0], [-1.0, -1.0, -1.0], [-1.0, -1.0, 1.0]], [[-1.0, 1.0, 1.0], [1.0, 1.0, 1.0], [-1.0, -1.0, -1.0]], [[1.0, -1.0, 1.0], [1.0, 1.0, 1.0], [-1.0, -1.0, -1.0]], [[1.0, -1.0, -1.0], [1.0, -1.0, -1.0], [1.0, 1.0, 1.0]], [[-1.0, -1.0, -1.0], [1.0, 1.0, 1.0], [1.0, 1.0, 1.0]], [[-1.0, -1.0, 1.0], [-1.0, -1.0, -1.0], [1.0, 1.0, 1.0]], [[1.0, -1.0, 1.0], [1.0, 1.0, 1.0], [1.0, 1.0, -1.0]], [[-1.0, -1.0, -1.0], [-1.0, -1.0, 1.0], [1.0, 1.0, 1.0]], [[-1.0, -1.0, 1.0], [1.0, -1.0, 1.0], [-1.0, 1.0, 1.0]], [[1.0, 1.0, 1.0], [-1.0, -1.0, -1.0], [1.0, -1.0, 1.0]], [[1.0, 1.0, 1.0], [-1.0, 1.0, -1.0], [-1.0, -1.0, -1.0]], [[1.0, 1.0, 1.0], [1.0, 1.0, 1.0], [1.0, 1.0, 1.0]], [[-1.0, -1.0, -1.0], [-1.0, -1.0, -1.0], [1.0, 1.0, 1.0]], [[1.0, 1.0, 1.0], [1.0, 1.0, -1.0], [-1.0, -1.0, -1.0]], [[-1.0, -1.0, -1.0], [-1.0, -1.0, 1.0], [-1.0, -1.0, 1.0]], [[1.0, 1.0, 1.0], [1.0, 1.0, 1.0], [-1.0, -1.0, -1.0]], [[-1.0, -1.0, -1.0], [-1.0, -1.0, 1.0], [1.0, 1.0, 1.0]], [[-1.0, 1.0, -1.0], [1.0, -1.0, -1.0], [1.0, 1.0, 1.0]], [[1.0, 1.0, 1.0], [-1.0, 1.0, -1.0], [-1.0, -1.0, -1.0]], [[1.0, 1.0, -1.0], [1.0, -1.0, 1.0], [-1.0, -1.0, 1.0]], [[-1.0, -1.0, -1.0], [1.0, 1.0, 1.0], [-1.0, -1.0, 1.0]], [[1.0, -1.0, -1.0], [1.0, 1.0, 1.0], [1.0, 1.0, -1.0]], [[1.0, 1.0, 1.0], [-1.0, -1.0, -1.0], [-1.0, 1.0, 1.0]], [[-1.0, -1.0, -1.0], [1.0, 1.0, -1.0], [1.0, 1.0, 1.0]], [[-1.0, -1.0, -1.0], [1.0, 1.0, 1.0], [1.0, -1.0, -1.0]], [[-1.0, 1.0, 1.0], [1.0, 1.0, 1.0], [-1.0, -1.0, -1.0]], [[-1.0, -1.0, -1.0], [-1.0, -1.0, -1.0], [1.0, -1.0, 1.0]], [[1.0, 1.0, 1.0], [-1.0, 1.0, 1.0], [-1.0, -1.0, -1.0]], [[-1.0, -1.0, -1.0], [1.0, 1.0, 1.0], [-1.0, -1.0, 1.0]], [[1.0, 1.0, 1.0], [-1.0, -1.0, -1.0], [-1.0, -1.0, -1.0]], [[1.0, 1.0, -1.0], [1.0, 1.0, 1.0], [1.0, 1.0, 1.0]], [[1.0, 1.0, 1.0], [1.0, -1.0, -1.0], [-1.0, -1.0, -1.0]], [[-1.0, -1.0, -1.0], [1.0, 1.0, 1.0], [-1.0, -1.0, 1.0]], [[1.0, 1.0, 1.0], [1.0, 1.0, -1.0], [-1.0, -1.0, -1.0]], [[-1.0, -1.0, -1.0], [1.0, -1.0, 1.0], [1.0, 1.0, 1.0]], [[1.0, 1.0, 1.0], [1.0, 1.0, -1.0], [-1.0, -1.0, -1.0]], [[1.0, 1.0, -1.0], [-1.0, -1.0, -1.0], [1.0, 1.0, 1.0]], [[1.0, 1.0, 1.0], [-1.0, -1.0, -1.0], [-1.0, -1.0, -1.0]], [[-1.0, -1.0, -1.0], [1.0, 1.0, 1.0], [1.0, -1.0, 1.0]], [[1.0, 1.0, 1.0], [-1.0, 1.0, -1.0], [-1.0, -1.0, 1.0]], [[-1.0, -1.0, -1.0], [-1.0, 1.0, 1.0], [1.0, 1.0, 1.0]], [[-1.0, 1.0, -1.0], [-1.0, -1.0, -1.0], [1.0, 1.0, 1.0]], [[-1.0, -1.0, -1.0], [-1.0, -1.0, 1.0], [1.0, 1.0, 1.0]], [[-1.0, 1.0, 1.0], [-1.0, -1.0, -1.0], [-1.0, 1.0, 1.0]], [[1.0, 1.0, -1.0], [1.0, 1.0, -1.0], [-1.0, -1.0, 1.0]], [[-1.0, -1.0, -1.0], [-1.0, -1.0, -1.0], [-1.0, -1.0, -1.0]]], [[[-1.0, -1.0, 1.0], [-1.0, 1.0, -1.0], [1.0, 1.0, -1.0]], [[-1.0, -1.0, -1.0], [1.0, 1.0, -1.0], [1.0, 1.0, -1.0]], [[1.0, -1.0, -1.0], [1.0, 1.0, 1.0], [-1.0, -1.0, 1.0]], [[1.0, -1.0, -1.0], [1.0, -1.0, -1.0], [1.0, -1.0, -1.0]], [[1.0, 1.0, 1.0], [-1.0, 1.0, 1.0], [-1.0, -1.0, 1.0]], [[-1.0, 1.0, 1.0], [-1.0, 1.0, 1.0], [1.0, -1.0, -1.0]], [[-1.0, -1.0, -1.0], [-1.0, -1.0, -1.0], [1.0, -1.0, -1.0]], [[1.0, 1.0, 1.0], [-1.0, -1.0, 1.0], [-1.0, -1.0, 1.0]], [[1.0, -1.0, 1.0], [1.0, 1.0, 1.0], [1.0, 1.0, 1.0]], [[1.0, 1.0, -1.0], [1.0, -1.0, -1.0], [1.0, -1.0, 1.0]], [[1.0, 1.0, 1.0], [1.0, -1.0, -1.0], [1.0, 1.0, 1.0]], [[-1.0, 1.0, 1.0], [-1.0, 1.0, 1.0], [-1.0, 1.0, 1.0]], [[1.0, 1.0, 1.0], [-1.0, 1.0, -1.0], [-1.0, -1.0, -1.0]], [[-1.0, -1.0, 1.0], [-1.0, -1.0, 1.0], [-1.0, -1.0, 1.0]], [[1.0, -1.0, 1.0], [1.0, -1.0, -1.0], [-1.0, -1.0, -1.0]], [[-1.0, -1.0, -1.0], [-1.0, -1.0, -1.0], [-1.0, -1.0, -1.0]], [[-1.0, 1.0, -1.0], [1.0, -1.0, -1.0], [-1.0, -1.0, 1.0]], [[-1.0, -1.0, -1.0], [-1.0, -1.0, -1.0], [-1.0, 1.0, 1.0]], [[1.0, 1.0, -1.0], [1.0, -1.0, -1.0], [1.0, -1.0, -1.0]], [[1.0, 1.0, -1.0], [1.0, 1.0, -1.0], [1.0, 1.0, -1.0]], [[1.0, -1.0, -1.0], [1.0, -1.0, -1.0], [1.0, 1.0, -1.0]], [[-1.0, -1.0, 1.0], [-1.0, 1.0, 1.0], [1.0, 1.0, 1.0]], [[1.0, 1.0, -1.0], [1.0, -1.0, 1.0], [1.0, 1.0, 1.0]], [[1.0, 1.0, -1.0], [-1.0, 1.0, -1.0], [1.0, 1.0, -1.0]], [[-1.0, -1.0, -1.0], [1.0, -1.0, -1.0], [1.0, 1.0, 1.0]], [[1.0, 1.0, -1.0], [-1.0, 1.0, -1.0], [1.0, -1.0, -1.0]], [[1.0, 1.0, -1.0], [-1.0, -1.0, 1.0], [-1.0, -1.0, 1.0]], [[-1.0, -1.0, -1.0], [-1.0, 1.0, 1.0], [-1.0, 1.0, 1.0]], [[1.0, -1.0, 1.0], [1.0, 1.0, -1.0], [1.0, -1.0, -1.0]], [[1.0, 1.0, 1.0], [1.0, 1.0, 1.0], [1.0, 1.0, 1.0]], [[1.0, 1.0, -1.0], [-1.0, 1.0, 1.0], [-1.0, -1.0, -1.0]], [[-1.0, 1.0, 1.0], [-1.0, -1.0, -1.0], [1.0, 1.0, 1.0]], [[-1.0, 1.0, 1.0], [-1.0, -1.0, 1.0], [1.0, -1.0, 1.0]], [[1.0, 1.0, 1.0], [1.0, -1.0, -1.0], [-1.0, -1.0, 1.0]], [[1.0, 1.0, -1.0], [-1.0, 1.0, -1.0], [1.0, -1.0, -1.0]], [[-1.0, 1.0, 1.0], [-1.0, -1.0, 1.0], [-1.0, -1.0, 1.0]], [[1.0, 1.0, 1.0], [1.0, 1.0, 1.0], [1.0, 1.0, 1.0]], [[-1.0, -1.0, -1.0], [-1.0, 1.0, 1.0], [1.0, 1.0, -1.0]], [[1.0, 1.0, 1.0], [1.0, -1.0, -1.0], [-1.0, -1.0, -1.0]], [[-1.0, -1.0, -1.0], [-1.0, -1.0, -1.0], [-1.0, -1.0, -1.0]], [[-1.0, 1.0, -1.0], [1.0, 1.0, 1.0], [1.0, 1.0, 1.0]], [[1.0, -1.0, 1.0], [-1.0, -1.0, 1.0], [-1.0, 1.0, 1.0]], [[-1.0, -1.0, -1.0], [-1.0, -1.0, -1.0], [-1.0, -1.0, -1.0]], [[-1.0, -1.0, 1.0], [1.0, -1.0, 1.0], [-1.0, 1.0, 1.0]], [[-1.0, -1.0, 1.0], [1.0, 1.0, 1.0], [-1.0, -1.0, 1.0]], [[1.0, -1.0, -1.0], [1.0, 1.0, -1.0], [1.0, 1.0, -1.0]], [[1.0, 1.0, 1.0], [-1.0, -1.0, 1.0], [-1.0, -1.0, -1.0]], [[1.0, 1.0, 1.0], [1.0, 1.0, 1.0], [1.0, 1.0, 1.0]], [[-1.0, -1.0, 1.0], [-1.0, -1.0, 1.0], [-1.0, -1.0, -1.0]], [[-1.0, -1.0, 1.0], [1.0, -1.0, 1.0], [1.0, 1.0, 1.0]], [[1.0, -1.0, -1.0], [-1.0, 1.0, 1.0], [-1.0, 1.0, -1.0]], [[1.0, -1.0, 1.0], [1.0, -1.0, -1.0], [1.0, -1.0, -1.0]], [[1.0, 1.0, 1.0], [-1.0, -1.0, 1.0], [-1.0, -1.0, 1.0]], [[1.0, 1.0, 1.0], [-1.0, 1.0, 1.0], [-1.0, 1.0, 1.0]], [[1.0, -1.0, -1.0], [1.0, 1.0, -1.0], [1.0, 1.0, -1.0]], [[1.0, 1.0, -1.0], [-1.0, 1.0, 1.0], [-1.0, 1.0, 1.0]], [[-1.0, -1.0, -1.0], [-1.0, -1.0, 1.0], [-1.0, 1.0, 1.0]], [[-1.0, -1.0, 1.0], [1.0, 1.0, -1.0], [1.0, -1.0, -1.0]], [[1.0, 1.0, 1.0], [-1.0, -1.0, -1.0], [-1.0, -1.0, 1.0]], [[-1.0, 1.0, 1.0], [-1.0, 1.0, 1.0], [-1.0, -1.0, 1.0]], [[1.0, -1.0, 1.0], [1.0, -1.0, -1.0], [-1.0, -1.0, -1.0]], [[1.0, -1.0, -1.0], [1.0, -1.0, -1.0], [1.0, -1.0, -1.0]], [[-1.0, 1.0, 1.0], [-1.0, 1.0, 1.0], [1.0, 1.0, 1.0]], [[1.0, 1.0, 1.0], [1.0, 1.0, 1.0], [-1.0, -1.0, 1.0]]], [[[-1.0, 1.0, 1.0], [-1.0, -1.0, 1.0], [1.0, -1.0, 1.0]], [[-1.0, 1.0, -1.0], [-1.0, 1.0, -1.0], [-1.0, 1.0, -1.0]], [[1.0, 1.0, -1.0], [-1.0, 1.0, -1.0], [-1.0, 1.0, -1.0]], [[-1.0, 1.0, -1.0], [1.0, 1.0, 1.0], [-1.0, -1.0, 1.0]], [[1.0, -1.0, -1.0], [1.0, 1.0, -1.0], [-1.0, 1.0, -1.0]], [[1.0, -1.0, -1.0], [1.0, -1.0, -1.0], [1.0, 1.0, -1.0]], [[-1.0, 1.0, 1.0], [1.0, -1.0, 1.0], [1.0, 1.0, 1.0]], [[1.0, 1.0, -1.0], [-1.0, 1.0, -1.0], [-1.0, 1.0, -1.0]], [[1.0, -1.0, 1.0], [1.0, 1.0, -1.0], [1.0, -1.0, -1.0]], [[-1.0, 1.0, -1.0], [-1.0, 1.0, -1.0], [-1.0, 1.0, -1.0]], [[1.0, 1.0, 1.0], [-1.0, -1.0, -1.0], [-1.0, -1.0, -1.0]], [[-1.0, -1.0, 1.0], [1.0, -1.0, 1.0], [1.0, 1.0, -1.0]], [[-1.0, -1.0, 1.0], [1.0, -1.0, 1.0], [1.0, -1.0, -1.0]], [[1.0, -1.0, 1.0], [1.0, -1.0, -1.0], [1.0, 1.0, 1.0]], [[1.0, 1.0, -1.0], [-1.0, 1.0, -1.0], [-1.0, 1.0, -1.0]], [[-1.0, -1.0, -1.0], [-1.0, 1.0, -1.0], [-1.0, -1.0, -1.0]], [[1.0, 1.0, -1.0], [-1.0, 1.0, -1.0], [1.0, 1.0, -1.0]], [[1.0, 1.0, -1.0], [-1.0, 1.0, -1.0], [-1.0, -1.0, 1.0]], [[1.0, 1.0, -1.0], [-1.0, 1.0, -1.0], [-1.0, 1.0, -1.0]], [[-1.0, -1.0, -1.0], [1.0, 1.0, -1.0], [1.0, 1.0, -1.0]], [[-1.0, 1.0, -1.0], [-1.0, 1.0, -1.0], [-1.0, 1.0, 1.0]], [[-1.0, -1.0, -1.0], [1.0, -1.0, -1.0], [1.0, 1.0, -1.0]], [[1.0, 1.0, -1.0], [-1.0, 1.0, -1.0], [-1.0, -1.0, -1.0]], [[-1.0, -1.0, 1.0], [1.0, -1.0, 1.0], [1.0, -1.0, 1.0]], [[1.0, -1.0, -1.0], [1.0, 1.0, -1.0], [1.0, 1.0, -1.0]], [[-1.0, -1.0, 1.0], [1.0, -1.0, 1.0], [1.0, -1.0, 1.0]], [[1.0, 1.0, -1.0], [-1.0, 1.0, -1.0], [-1.0, 1.0, -1.0]], [[1.0, 1.0, -1.0], [-1.0, 1.0, -1.0], [-1.0, 1.0, -1.0]], [[1.0, 1.0, 1.0], [-1.0, -1.0, 1.0], [-1.0, -1.0, 1.0]], [[-1.0, -1.0, 1.0], [1.0, 1.0, 1.0], [1.0, -1.0, 1.0]], [[1.0, -1.0, 1.0], [-1.0, 1.0, -1.0], [-1.0, 1.0, -1.0]], [[1.0, -1.0, 1.0], [1.0, -1.0, 1.0], [1.0, -1.0, 1.0]], [[1.0, 1.0, 1.0], [-1.0, 1.0, -1.0], [-1.0, 1.0, -1.0]], [[-1.0, 1.0, 1.0], [-1.0, -1.0, 1.0], [1.0, -1.0, -1.0]], [[-1.0, -1.0, 1.0], [1.0, -1.0, 1.0], [1.0, -1.0, 1.0]], [[-1.0, -1.0, 1.0], [1.0, -1.0, 1.0], [-1.0, -1.0, 1.0]], [[1.0, 1.0, 1.0], [1.0, 1.0, 1.0], [-1.0, 1.0, 1.0]], [[1.0, -1.0, -1.0], [1.0, 1.0, -1.0], [-1.0, 1.0, -1.0]], [[-1.0, 1.0, 1.0], [-1.0, -1.0, 1.0], [1.0, -1.0, 1.0]], [[1.0, 1.0, 1.0], [-1.0, 1.0, 1.0], [-1.0, -1.0, 1.0]], [[1.0, 1.0, 1.0], [1.0, 1.0, 1.0], [1.0, 1.0, 1.0]], [[1.0, -1.0, -1.0], [-1.0, -1.0, 1.0], [1.0, -1.0, 1.0]], [[-1.0, 1.0, -1.0], [-1.0, -1.0, -1.0], [-1.0, -1.0, -1.0]], [[1.0, 1.0, -1.0], [-1.0, 1.0, -1.0], [-1.0, -1.0, 1.0]], [[-1.0, -1.0, -1.0], [1.0, 1.0, 1.0], [1.0, 1.0, 1.0]], [[1.0, 1.0, -1.0], [1.0, 1.0, -1.0], [-1.0, -1.0, 1.0]], [[1.0, 1.0, -1.0], [-1.0, 1.0, -1.0], [-1.0, 1.0, -1.0]], [[1.0, -1.0, -1.0], [1.0, 1.0, -1.0], [1.0, 1.0, -1.0]], [[-1.0, -1.0, -1.0], [-1.0, -1.0, -1.0], [-1.0, 1.0, -1.0]], [[1.0, 1.0, -1.0], [-1.0, 1.0, -1.0], [1.0, -1.0, 1.0]], [[-1.0, -1.0, -1.0], [1.0, 1.0, -1.0], [-1.0, 1.0, -1.0]], [[-1.0, 1.0, -1.0], [-1.0, 1.0, 1.0], [-1.0, -1.0, 1.0]], [[-1.0, 1.0, -1.0], [-1.0, 1.0, -1.0], [-1.0, 1.0, 1.0]], [[-1.0, -1.0, 1.0], [1.0, -1.0, 1.0], [1.0, 1.0, -1.0]], [[-1.0, -1.0, 1.0], [-1.0, -1.0, 1.0], [1.0, -1.0, 1.0]], [[-1.0, -1.0, 1.0], [1.0, -1.0, 1.0], [1.0, -1.0, -1.0]], [[-1.0, -1.0, 1.0], [1.0, 1.0, -1.0], [-1.0, 1.0, -1.0]], [[-1.0, 1.0, 1.0], [-1.0, -1.0, 1.0], [1.0, -1.0, -1.0]], [[-1.0, 1.0, 1.0], [-1.0, -1.0, 1.0], [1.0, -1.0, 1.0]], [[-1.0, -1.0, 1.0], [1.0, -1.0, 1.0], [-1.0, 1.0, -1.0]], [[1.0, 1.0, -1.0], [-1.0, 1.0, -1.0], [-1.0, 1.0, -1.0]], [[-1.0, 1.0, 1.0], [-1.0, -1.0, 1.0], [1.0, -1.0, 1.0]], [[-1.0, -1.0, 1.0], [1.0, -1.0, 1.0], [1.0, -1.0, -1.0]], [[1.0, 1.0, 1.0], [-1.0, -1.0, 1.0], [-1.0, -1.0, -1.0]]], [[[1.0, -1.0, -1.0], [1.0, 1.0, 1.0], [-1.0, -1.0, 1.0]], [[1.0, 1.0, -1.0], [1.0, 1.0, 1.0], [-1.0, -1.0, 1.0]], [[1.0, -1.0, -1.0], [1.0, 1.0, -1.0], [-1.0, 1.0, 1.0]], [[-1.0, 1.0, 1.0], [-1.0, 1.0, 1.0], [-1.0, -1.0, 1.0]], [[1.0, 1.0, -1.0], [-1.0, 1.0, 1.0], [-1.0, -1.0, 1.0]], [[-1.0, -1.0, -1.0], [1.0, 1.0, -1.0], [-1.0, 1.0, 1.0]], [[1.0, -1.0, -1.0], [1.0, 1.0, -1.0], [-1.0, -1.0, 1.0]], [[1.0, -1.0, -1.0], [1.0, 1.0, 1.0], [-1.0, -1.0, 1.0]], [[1.0, 1.0, -1.0], [1.0, 1.0, 1.0], [-1.0, -1.0, 1.0]], [[1.0, -1.0, -1.0], [1.0, 1.0, 1.0], [-1.0, -1.0, 1.0]], [[1.0, -1.0, -1.0], [1.0, 1.0, -1.0], [-1.0, 1.0, 1.0]], [[-1.0, -1.0, -1.0], [1.0, -1.0, -1.0], [1.0, 1.0, -1.0]], [[1.0, -1.0, -1.0], [1.0, 1.0, 1.0], [-1.0, -1.0, 1.0]], [[-1.0, -1.0, -1.0], [1.0, 1.0, -1.0], [-1.0, 1.0, 1.0]], [[1.0, 1.0, -1.0], [1.0, 1.0, 1.0], [-1.0, -1.0, 1.0]], [[-1.0, 1.0, 1.0], [1.0, -1.0, 1.0], [1.0, -1.0, -1.0]], [[1.0, -1.0, 1.0], [-1.0, -1.0, 1.0], [1.0, -1.0, -1.0]], [[1.0, 1.0, 1.0], [-1.0, -1.0, 1.0], [-1.0, -1.0, -1.0]], [[1.0, 1.0, -1.0], [1.0, 1.0, 1.0], [-1.0, -1.0, 1.0]], [[1.0, -1.0, -1.0], [1.0, 1.0, -1.0], [1.0, 1.0, -1.0]], [[-1.0, 1.0, 1.0], [-1.0, -1.0, 1.0], [1.0, -1.0, -1.0]], [[1.0, -1.0, -1.0], [1.0, 1.0, -1.0], [1.0, -1.0, -1.0]], [[-1.0, 1.0, 1.0], [-1.0, 1.0, 1.0], [-1.0, -1.0, 1.0]], [[-1.0, 1.0, 1.0], [-1.0, -1.0, -1.0], [1.0, 1.0, -1.0]], [[-1.0, 1.0, 1.0], [1.0, -1.0, -1.0], [-1.0, -1.0, -1.0]], [[1.0, 1.0, -1.0], [-1.0, 1.0, 1.0], [-1.0, -1.0, 1.0]], [[-1.0, 1.0, 1.0], [-1.0, -1.0, -1.0], [1.0, 1.0, 1.0]], [[1.0, -1.0, -1.0], [1.0, 1.0, -1.0], [-1.0, 1.0, 1.0]], [[-1.0, -1.0, -1.0], [-1.0, -1.0, -1.0], [1.0, 1.0, 1.0]], [[-1.0, -1.0, 1.0], [1.0, -1.0, -1.0], [1.0, 1.0, -1.0]], [[1.0, -1.0, -1.0], [1.0, 1.0, 1.0], [-1.0, -1.0, 1.0]], [[-1.0, 1.0, 1.0], [-1.0, -1.0, -1.0], [1.0, 1.0, -1.0]], [[1.0, -1.0, -1.0], [1.0, 1.0, -1.0], [-1.0, 1.0, 1.0]], [[-1.0, 1.0, 1.0], [-1.0, -1.0, 1.0], [1.0, 1.0, -1.0]], [[1.0, 1.0, -1.0], [-1.0, 1.0, 1.0], [-1.0, -1.0, 1.0]], [[1.0, -1.0, -1.0], [1.0, -1.0, 1.0], [-1.0, -1.0, 1.0]], [[1.0, -1.0, -1.0], [1.0, 1.0, -1.0], [-1.0, 1.0, 1.0]], [[1.0, -1.0, -1.0], [-1.0, 1.0, 1.0], [-1.0, 1.0, 1.0]], [[-1.0, 1.0, 1.0], [-1.0, 1.0, -1.0], [1.0, -1.0, -1.0]], [[-1.0, -1.0, -1.0], [-1.0, -1.0, 1.0], [1.0, 1.0, 1.0]], [[1.0, -1.0, 1.0], [1.0, 1.0, -1.0], [1.0, 1.0, 1.0]], [[-1.0, -1.0, 1.0], [-1.0, -1.0, -1.0], [1.0, 1.0, -1.0]], [[-1.0, -1.0, -1.0], [1.0, -1.0, -1.0], [1.0, 1.0, -1.0]], [[-1.0, 1.0, 1.0], [-1.0, -1.0, -1.0], [1.0, 1.0, -1.0]], [[-1.0, 1.0, 1.0], [-1.0, -1.0, 1.0], [-1.0, -1.0, -1.0]], [[-1.0, 1.0, -1.0], [1.0, 1.0, -1.0], [-1.0, 1.0, -1.0]], [[1.0, -1.0, -1.0], [1.0, 1.0, 1.0], [-1.0, -1.0, 1.0]], [[1.0, -1.0, -1.0], [1.0, -1.0, -1.0], [-1.0, -1.0, -1.0]], [[-1.0, -1.0, -1.0], [1.0, 1.0, -1.0], [-1.0, 1.0, 1.0]], [[1.0, 1.0, -1.0], [-1.0, -1.0, -1.0], [1.0, 1.0, -1.0]], [[1.0, -1.0, -1.0], [1.0, 1.0, 1.0], [-1.0, 1.0, 1.0]], [[-1.0, 1.0, 1.0], [-1.0, -1.0, -1.0], [1.0, 1.0, -1.0]], [[-1.0, -1.0, 1.0], [-1.0, -1.0, 1.0], [1.0, 1.0, -1.0]], [[-1.0, -1.0, -1.0], [1.0, -1.0, -1.0], [1.0, 1.0, -1.0]], [[1.0, -1.0, -1.0], [1.0, 1.0, 1.0], [-1.0, -1.0, 1.0]], [[-1.0, -1.0, -1.0], [1.0, -1.0, -1.0], [1.0, 1.0, -1.0]], [[1.0, -1.0, -1.0], [1.0, 1.0, 1.0], [-1.0, 1.0, 1.0]], [[-1.0, -1.0, 1.0], [1.0, -1.0, -1.0], [1.0, 1.0, 1.0]], [[-1.0, 1.0, 1.0], [-1.0, -1.0, -1.0], [1.0, -1.0, -1.0]], [[1.0, -1.0, -1.0], [1.0, 1.0, -1.0], [-1.0, 1.0, 1.0]], [[1.0, 1.0, -1.0], [-1.0, 1.0, 1.0], [-1.0, -1.0, 1.0]], [[1.0, -1.0, -1.0], [1.0, 1.0, -1.0], [-1.0, 1.0, 1.0]], [[1.0, -1.0, -1.0], [1.0, 1.0, -1.0], [1.0, 1.0, -1.0]], [[-1.0, -1.0, -1.0], [1.0, 1.0, -1.0], [1.0, 1.0, 1.0]]], [[[-1.0, -1.0, 1.0], [-1.0, -1.0, 1.0], [-1.0, 1.0, 1.0]], [[-1.0, 1.0, 1.0], [-1.0, 1.0, -1.0], [1.0, 1.0, -1.0]], [[1.0, -1.0, -1.0], [1.0, -1.0, -1.0], [1.0, -1.0, 1.0]], [[-1.0, 1.0, -1.0], [-1.0, 1.0, -1.0], [1.0, 1.0, -1.0]], [[1.0, -1.0, -1.0], [1.0, -1.0, -1.0], [-1.0, -1.0, -1.0]], [[1.0, -1.0, 1.0], [-1.0, -1.0, 1.0], [-1.0, -1.0, 1.0]], [[-1.0, -1.0, 1.0], [-1.0, 1.0, 1.0], [-1.0, 1.0, -1.0]], [[1.0, -1.0, -1.0], [1.0, -1.0, -1.0], [1.0, -1.0, 1.0]], [[1.0, -1.0, 1.0], [-1.0, 1.0, 1.0], [-1.0, 1.0, 1.0]], [[-1.0, -1.0, -1.0], [1.0, 1.0, -1.0], [1.0, 1.0, -1.0]], [[1.0, -1.0, -1.0], [1.0, -1.0, -1.0], [-1.0, -1.0, 1.0]], [[1.0, -1.0, 1.0], [1.0, -1.0, -1.0], [1.0, -1.0, 1.0]], [[1.0, -1.0, 1.0], [-1.0, -1.0, -1.0], [-1.0, 1.0, -1.0]], [[1.0, -1.0, 1.0], [1.0, -1.0, 1.0], [-1.0, -1.0, 1.0]], [[-1.0, 1.0, 1.0], [-1.0, 1.0, -1.0], [1.0, 1.0, 1.0]], [[-1.0, -1.0, 1.0], [-1.0, 1.0, 1.0], [1.0, 1.0, 1.0]], [[-1.0, 1.0, -1.0], [1.0, 1.0, -1.0], [1.0, -1.0, 1.0]], [[1.0, 1.0, -1.0], [1.0, 1.0, -1.0], [1.0, 1.0, -1.0]], [[-1.0, -1.0, 1.0], [-1.0, 1.0, 1.0], [1.0, 1.0, 1.0]], [[-1.0, -1.0, 1.0], [-1.0, -1.0, 1.0], [-1.0, 1.0, -1.0]], [[-1.0, -1.0, 1.0], [-1.0, 1.0, 1.0], [-1.0, 1.0, -1.0]], [[1.0, -1.0, 1.0], [1.0, -1.0, 1.0], [-1.0, -1.0, 1.0]], [[1.0, -1.0, -1.0], [1.0, -1.0, -1.0], [1.0, -1.0, -1.0]], [[-1.0, 1.0, 1.0], [-1.0, 1.0, 1.0], [-1.0, 1.0, -1.0]], [[1.0, 1.0, 1.0], [-1.0, 1.0, -1.0], [1.0, -1.0, -1.0]], [[-1.0, -1.0, 1.0], [-1.0, 1.0, 1.0], [-1.0, 1.0, -1.0]], [[-1.0, 1.0, -1.0], [1.0, 1.0, -1.0], [1.0, -1.0, -1.0]], [[1.0, 1.0, -1.0], [1.0, -1.0, -1.0], [-1.0, -1.0, 1.0]], [[-1.0, 1.0, 1.0], [-1.0, 1.0, -1.0], [1.0, 1.0, -1.0]], [[-1.0, 1.0, -1.0], [1.0, 1.0, -1.0], [1.0, -1.0, -1.0]], [[1.0, -1.0, -1.0], [1.0, -1.0, 1.0], [1.0, -1.0, 1.0]], [[1.0, 1.0, -1.0], [-1.0, 1.0, -1.0], [-1.0, 1.0, -1.0]], [[1.0, -1.0, 1.0], [1.0, -1.0, -1.0], [1.0, -1.0, -1.0]], [[-1.0, 1.0, -1.0], [-1.0, 1.0, -1.0], [-1.0, 1.0, -1.0]], [[-1.0, 1.0, 1.0], [-1.0, 1.0, 1.0], [-1.0, 1.0, -1.0]], [[1.0, 1.0, -1.0], [1.0, -1.0, -1.0], [1.0, -1.0, 1.0]], [[-1.0, -1.0, 1.0], [-1.0, -1.0, -1.0], [-1.0, -1.0, 1.0]], [[1.0, -1.0, 1.0], [1.0, -1.0, 1.0], [1.0, -1.0, 1.0]], [[-1.0, -1.0, 1.0], [-1.0, 1.0, 1.0], [-1.0, 1.0, -1.0]], [[1.0, -1.0, -1.0], [1.0, -1.0, -1.0], [1.0, 1.0, -1.0]], [[1.0, 1.0, 1.0], [1.0, 1.0, 1.0], [1.0, -1.0, 1.0]], [[1.0, 1.0, -1.0], [1.0, -1.0, -1.0], [1.0, -1.0, 1.0]], [[1.0, 1.0, -1.0], [1.0, -1.0, -1.0], [-1.0, -1.0, -1.0]], [[-1.0, 1.0, -1.0], [1.0, 1.0, -1.0], [1.0, -1.0, -1.0]], [[1.0, 1.0, 1.0], [1.0, 1.0, 1.0], [1.0, 1.0, 1.0]], [[-1.0, 1.0, 1.0], [-1.0, 1.0, 1.0], [-1.0, 1.0, -1.0]], [[1.0, 1.0, -1.0], [1.0, -1.0, -1.0], [1.0, -1.0, -1.0]], [[-1.0, -1.0, 1.0], [-1.0, 1.0, 1.0], [-1.0, 1.0, -1.0]], [[-1.0, -1.0, -1.0], [-1.0, -1.0, -1.0], [-1.0, -1.0, 1.0]], [[-1.0, -1.0, 1.0], [-1.0, 1.0, 1.0], [-1.0, 1.0, -1.0]], [[1.0, -1.0, 1.0], [1.0, -1.0, 1.0], [-1.0, -1.0, -1.0]], [[-1.0, 1.0, -1.0], [-1.0, 1.0, -1.0], [-1.0, 1.0, 1.0]], [[1.0, 1.0, -1.0], [1.0, -1.0, -1.0], [1.0, -1.0, -1.0]], [[1.0, 1.0, -1.0], [1.0, -1.0, -1.0], [1.0, -1.0, 1.0]], [[-1.0, -1.0, 1.0], [-1.0, -1.0, 1.0], [-1.0, 1.0, 1.0]], [[1.0, -1.0, -1.0], [1.0, -1.0, -1.0], [1.0, -1.0, 1.0]], [[1.0, -1.0, 1.0], [1.0, -1.0, 1.0], [-1.0, -1.0, 1.0]], [[-1.0, -1.0, 1.0], [-1.0, 1.0, -1.0], [-1.0, 1.0, -1.0]], [[-1.0, 1.0, 1.0], [-1.0, 1.0, 1.0], [1.0, 1.0, -1.0]], [[1.0, -1.0, -1.0], [1.0, -1.0, -1.0], [1.0, -1.0, 1.0]], [[-1.0, 1.0, -1.0], [-1.0, 1.0, -1.0], [1.0, 1.0, -1.0]], [[-1.0, -1.0, 1.0], [-1.0, 1.0, 1.0], [-1.0, 1.0, -1.0]], [[-1.0, -1.0, 1.0], [-1.0, -1.0, 1.0], [-1.0, -1.0, 1.0]], [[1.0, -1.0, 1.0], [1.0, -1.0, 1.0], [1.0, -1.0, 1.0]]], [[[-1.0, 1.0, 1.0], [1.0, 1.0, 1.0], [1.0, -1.0, -1.0]], [[1.0, 1.0, -1.0], [1.0, 1.0, -1.0], [-1.0, -1.0, -1.0]], [[1.0, 1.0, 1.0], [1.0, 1.0, -1.0], [1.0, -1.0, -1.0]], [[1.0, 1.0, 1.0], [-1.0, 1.0, -1.0], [-1.0, -1.0, -1.0]], [[-1.0, 1.0, 1.0], [-1.0, 1.0, 1.0], [1.0, 1.0, 1.0]], [[-1.0, 1.0, 1.0], [1.0, 1.0, -1.0], [1.0, 1.0, -1.0]], [[1.0, 1.0, 1.0], [1.0, -1.0, -1.0], [-1.0, -1.0, -1.0]], [[-1.0, 1.0, -1.0], [1.0, 1.0, -1.0], [1.0, -1.0, -1.0]], [[-1.0, 1.0, 1.0], [1.0, 1.0, 1.0], [1.0, -1.0, -1.0]], [[1.0, 1.0, -1.0], [1.0, 1.0, -1.0], [1.0, -1.0, -1.0]], [[1.0, 1.0, -1.0], [1.0, -1.0, -1.0], [-1.0, -1.0, -1.0]], [[1.0, -1.0, -1.0], [1.0, -1.0, -1.0], [-1.0, -1.0, 1.0]], [[-1.0, 1.0, 1.0], [1.0, 1.0, 1.0], [1.0, -1.0, -1.0]], [[-1.0, -1.0, 1.0], [-1.0, -1.0, 1.0], [-1.0, 1.0, 1.0]], [[-1.0, 1.0, 1.0], [1.0, 1.0, -1.0], [-1.0, -1.0, -1.0]], [[-1.0, -1.0, -1.0], [-1.0, -1.0, -1.0], [-1.0, -1.0, -1.0]], [[1.0, -1.0, -1.0], [-1.0, -1.0, -1.0], [-1.0, 1.0, 1.0]], [[1.0, -1.0, -1.0], [-1.0, -1.0, 1.0], [-1.0, -1.0, 1.0]], [[1.0, 1.0, 1.0], [1.0, 1.0, -1.0], [1.0, -1.0, -1.0]], [[-1.0, 1.0, -1.0], [1.0, 1.0, -1.0], [1.0, 1.0, -1.0]], [[-1.0, 1.0, 1.0], [1.0, 1.0, 1.0], [1.0, -1.0, -1.0]], [[1.0, 1.0, 1.0], [-1.0, 1.0, 1.0], [-1.0, 1.0, 1.0]], [[-1.0, -1.0, 1.0], [-1.0, -1.0, 1.0], [1.0, 1.0, 1.0]], [[1.0, -1.0, -1.0], [-1.0, -1.0, 1.0], [-1.0, 1.0, 1.0]], [[1.0, -1.0, 1.0], [1.0, -1.0, -1.0], [-1.0, 1.0, 1.0]], [[-1.0, 1.0, 1.0], [1.0, 1.0, 1.0], [1.0, -1.0, -1.0]], [[1.0, 1.0, -1.0], [-1.0, -1.0, -1.0], [-1.0, 1.0, 1.0]], [[-1.0, -1.0, 1.0], [-1.0, 1.0, 1.0], [1.0, 1.0, -1.0]], [[1.0, 1.0, -1.0], [1.0, 1.0, -1.0], [-1.0, -1.0, -1.0]], [[-1.0, 1.0, -1.0], [1.0, -1.0, 1.0], [-1.0, 1.0, -1.0]], [[1.0, -1.0, 1.0], [-1.0, -1.0, 1.0], [1.0, 1.0, 1.0]], [[-1.0, 1.0, -1.0], [1.0, -1.0, -1.0], [1.0, -1.0, 1.0]], [[-1.0, -1.0, 1.0], [1.0, 1.0, -1.0], [1.0, 1.0, -1.0]], [[-1.0, 1.0, -1.0], [1.0, -1.0, -1.0], [-1.0, -1.0, 1.0]], [[-1.0, 1.0, 1.0], [1.0, 1.0, 1.0], [1.0, -1.0, -1.0]], [[1.0, -1.0, -1.0], [-1.0, -1.0, 1.0], [1.0, 1.0, 1.0]], [[1.0, 1.0, 1.0], [1.0, 1.0, 1.0], [-1.0, -1.0, -1.0]], [[-1.0, -1.0, 1.0], [-1.0, 1.0, 1.0], [1.0, -1.0, -1.0]], [[-1.0, 1.0, 1.0], [1.0, -1.0, 1.0], [-1.0, -1.0, -1.0]], [[-1.0, -1.0, 1.0], [1.0, 1.0, 1.0], [1.0, 1.0, 1.0]], [[1.0, 1.0, 1.0], [1.0, 1.0, 1.0], [1.0, 1.0, 1.0]], [[1.0, -1.0, -1.0], [-1.0, -1.0, 1.0], [-1.0, 1.0, 1.0]], [[-1.0, -1.0, -1.0], [-1.0, -1.0, -1.0], [-1.0, -1.0, -1.0]], [[1.0, 1.0, -1.0], [-1.0, -1.0, 1.0], [-1.0, 1.0, -1.0]], [[-1.0, -1.0, 1.0], [-1.0, 1.0, 1.0], [1.0, 1.0, 1.0]], [[1.0, 1.0, 1.0], [1.0, -1.0, -1.0], [-1.0, -1.0, -1.0]], [[-1.0, 1.0, -1.0], [-1.0, 1.0, -1.0], [1.0, -1.0, 1.0]], [[1.0, 1.0, 1.0], [1.0, 1.0, 1.0], [1.0, -1.0, 1.0]], [[-1.0, -1.0, -1.0], [-1.0, -1.0, -1.0], [-1.0, -1.0, -1.0]], [[-1.0, 1.0, 1.0], [1.0, 1.0, -1.0], [1.0, -1.0, -1.0]], [[1.0, -1.0, 1.0], [1.0, 1.0, -1.0], [1.0, -1.0, -1.0]], [[1.0, -1.0, -1.0], [-1.0, -1.0, 1.0], [-1.0, -1.0, 1.0]], [[1.0, -1.0, -1.0], [-1.0, 1.0, 1.0], [1.0, -1.0, -1.0]], [[1.0, -1.0, -1.0], [-1.0, -1.0, -1.0], [-1.0, 1.0, 1.0]], [[-1.0, 1.0, 1.0], [1.0, 1.0, 1.0], [1.0, -1.0, -1.0]], [[1.0, -1.0, -1.0], [-1.0, -1.0, -1.0], [-1.0, 1.0, 1.0]], [[-1.0, -1.0, 1.0], [-1.0, 1.0, 1.0], [1.0, 1.0, 1.0]], [[1.0, 1.0, 1.0], [1.0, -1.0, -1.0], [1.0, -1.0, -1.0]], [[-1.0, 1.0, 1.0], [1.0, -1.0, 1.0], [-1.0, -1.0, 1.0]], [[1.0, -1.0, -1.0], [1.0, -1.0, -1.0], [-1.0, 1.0, 1.0]], [[-1.0, 1.0, 1.0], [1.0, 1.0, -1.0], [-1.0, -1.0, -1.0]], [[1.0, -1.0, -1.0], [1.0, 1.0, -1.0], [1.0, -1.0, -1.0]], [[-1.0, 1.0, 1.0], [1.0, 1.0, -1.0], [1.0, -1.0, -1.0]], [[1.0, 1.0, -1.0], [1.0, -1.0, -1.0], [1.0, 1.0, -1.0]]], [[[1.0, 1.0, -1.0], [-1.0, 1.0, -1.0], [-1.0, 1.0, -1.0]], [[1.0, 1.0, -1.0], [-1.0, 1.0, -1.0], [-1.0, 1.0, -1.0]], [[1.0, -1.0, 1.0], [1.0, -1.0, 1.0], [1.0, -1.0, 1.0]], [[-1.0, 1.0, -1.0], [-1.0, 1.0, -1.0], [1.0, 1.0, -1.0]], [[1.0, -1.0, 1.0], [1.0, -1.0, 1.0], [1.0, -1.0, 1.0]], [[-1.0, -1.0, -1.0], [1.0, -1.0, 1.0], [1.0, -1.0, 1.0]], [[-1.0, 1.0, -1.0], [-1.0, 1.0, -1.0], [-1.0, 1.0, -1.0]], [[1.0, -1.0, 1.0], [1.0, -1.0, 1.0], [1.0, -1.0, 1.0]], [[-1.0, -1.0, 1.0], [-1.0, 1.0, -1.0], [-1.0, 1.0, -1.0]], [[-1.0, -1.0, -1.0], [1.0, -1.0, -1.0], [1.0, -1.0, 1.0]], [[1.0, -1.0, 1.0], [-1.0, -1.0, 1.0], [1.0, -1.0, -1.0]], [[1.0, 1.0, -1.0], [1.0, 1.0, -1.0], [-1.0, -1.0, -1.0]], [[-1.0, 1.0, -1.0], [-1.0, 1.0, -1.0], [-1.0, 1.0, -1.0]], [[-1.0, -1.0, 1.0], [1.0, -1.0, 1.0], [1.0, -1.0, 1.0]], [[1.0, -1.0, 1.0], [1.0, -1.0, 1.0], [1.0, -1.0, 1.0]], [[1.0, -1.0, 1.0], [1.0, 1.0, 1.0], [1.0, -1.0, 1.0]], [[1.0, -1.0, 1.0], [1.0, -1.0, 1.0], [1.0, -1.0, 1.0]], [[1.0, -1.0, 1.0], [1.0, -1.0, 1.0], [-1.0, 1.0, -1.0]], [[1.0, 1.0, -1.0], [-1.0, 1.0, 1.0], [-1.0, -1.0, 1.0]], [[-1.0, 1.0, -1.0], [-1.0, 1.0, -1.0], [1.0, 1.0, 1.0]], [[1.0, -1.0, -1.0], [1.0, 1.0, -1.0], [-1.0, 1.0, -1.0]], [[1.0, -1.0, 1.0], [1.0, 1.0, 1.0], [-1.0, -1.0, -1.0]], [[1.0, -1.0, 1.0], [1.0, -1.0, 1.0], [1.0, -1.0, 1.0]], [[-1.0, 1.0, -1.0], [-1.0, 1.0, -1.0], [-1.0, 1.0, -1.0]], [[-1.0, -1.0, 1.0], [-1.0, -1.0, 1.0], [1.0, -1.0, 1.0]], [[-1.0, 1.0, -1.0], [-1.0, 1.0, -1.0], [-1.0, 1.0, -1.0]], [[1.0, -1.0, 1.0], [1.0, -1.0, 1.0], [1.0, -1.0, 1.0]], [[1.0, -1.0, 1.0], [1.0, -1.0, 1.0], [1.0, -1.0, -1.0]], [[-1.0, 1.0, -1.0], [-1.0, 1.0, -1.0], [-1.0, 1.0, -1.0]], [[-1.0, -1.0, -1.0], [-1.0, 1.0, -1.0], [-1.0, 1.0, 1.0]], [[1.0, -1.0, 1.0], [1.0, -1.0, 1.0], [1.0, -1.0, 1.0]], [[-1.0, 1.0, -1.0], [-1.0, 1.0, -1.0], [-1.0, 1.0, -1.0]], [[1.0, -1.0, 1.0], [1.0, -1.0, 1.0], [1.0, -1.0, 1.0]], [[-1.0, 1.0, -1.0], [-1.0, 1.0, -1.0], [-1.0, 1.0, -1.0]], [[-1.0, 1.0, -1.0], [-1.0, 1.0, -1.0], [-1.0, 1.0, -1.0]], [[1.0, -1.0, 1.0], [1.0, -1.0, 1.0], [-1.0, -1.0, -1.0]], [[1.0, 1.0, -1.0], [-1.0, -1.0, -1.0], [1.0, -1.0, -1.0]], [[1.0, -1.0, 1.0], [1.0, -1.0, 1.0], [1.0, -1.0, 1.0]], [[-1.0, 1.0, -1.0], [-1.0, 1.0, -1.0], [-1.0, 1.0, -1.0]], [[-1.0, -1.0, -1.0], [-1.0, -1.0, 1.0], [-1.0, -1.0, -1.0]], [[1.0, 1.0, -1.0], [1.0, 1.0, 1.0], [1.0, 1.0, 1.0]], [[1.0, -1.0, -1.0], [1.0, -1.0, 1.0], [1.0, -1.0, -1.0]], [[-1.0, -1.0, -1.0], [-1.0, -1.0, -1.0], [-1.0, -1.0, -1.0]], [[1.0, -1.0, 1.0], [1.0, -1.0, 1.0], [-1.0, 1.0, -1.0]], [[-1.0, 1.0, -1.0], [1.0, 1.0, 1.0], [1.0, 1.0, 1.0]], [[-1.0, 1.0, -1.0], [-1.0, 1.0, -1.0], [-1.0, 1.0, 1.0]], [[1.0, -1.0, 1.0], [1.0, -1.0, 1.0], [1.0, -1.0, 1.0]], [[1.0, 1.0, -1.0], [-1.0, 1.0, -1.0], [-1.0, 1.0, -1.0]], [[1.0, -1.0, -1.0], [1.0, -1.0, -1.0], [1.0, -1.0, -1.0]], [[1.0, 1.0, -1.0], [-1.0, 1.0, -1.0], [-1.0, 1.0, -1.0]], [[-1.0, 1.0, -1.0], [1.0, 1.0, 1.0], [-1.0, -1.0, -1.0]], [[-1.0, 1.0, -1.0], [-1.0, 1.0, -1.0], [-1.0, 1.0, -1.0]], [[1.0, -1.0, 1.0], [1.0, -1.0, 1.0], [1.0, -1.0, -1.0]], [[1.0, -1.0, 1.0], [1.0, -1.0, 1.0], [1.0, -1.0, 1.0]], [[-1.0, 1.0, -1.0], [-1.0, 1.0, -1.0], [-1.0, 1.0, -1.0]], [[-1.0, -1.0, 1.0], [1.0, -1.0, 1.0], [1.0, -1.0, 1.0]], [[1.0, -1.0, 1.0], [1.0, -1.0, 1.0], [1.0, -1.0, 1.0]], [[-1.0, 1.0, -1.0], [-1.0, 1.0, -1.0], [-1.0, 1.0, 1.0]], [[1.0, 1.0, -1.0], [-1.0, 1.0, -1.0], [-1.0, 1.0, -1.0]], [[-1.0, 1.0, -1.0], [1.0, -1.0, 1.0], [1.0, -1.0, 1.0]], [[1.0, -1.0, 1.0], [1.0, -1.0, 1.0], [1.0, -1.0, -1.0]], [[-1.0, 1.0, -1.0], [-1.0, 1.0, -1.0], [-1.0, 1.0, -1.0]], [[-1.0, 1.0, -1.0], [-1.0, 1.0, -1.0], [-1.0, 1.0, -1.0]], [[1.0, -1.0, 1.0], [-1.0, 1.0, 1.0], [1.0, -1.0, 1.0]]], [[[1.0, 1.0, 1.0], [-1.0, 1.0, -1.0], [-1.0, -1.0, -1.0]], [[-1.0, -1.0, 1.0], [-1.0, -1.0, -1.0], [1.0, 1.0, -1.0]], [[1.0, -1.0, -1.0], [-1.0, -1.0, 1.0], [-1.0, 1.0, -1.0]], [[-1.0, 1.0, -1.0], [-1.0, 1.0, -1.0], [1.0, 1.0, 1.0]], [[1.0, 1.0, 1.0], [-1.0, -1.0, 1.0], [1.0, 1.0, 1.0]], [[1.0, 1.0, 1.0], [1.0, 1.0, 1.0], [1.0, -1.0, -1.0]], [[1.0, 1.0, 1.0], [1.0, 1.0, 1.0], [1.0, 1.0, -1.0]], [[-1.0, -1.0, -1.0], [-1.0, 1.0, -1.0], [1.0, 1.0, 1.0]], [[1.0, 1.0, 1.0], [1.0, 1.0, 1.0], [1.0, 1.0, 1.0]], [[1.0, 1.0, 1.0], [1.0, 1.0, 1.0], [1.0, 1.0, 1.0]], [[-1.0, -1.0, 1.0], [1.0, 1.0, 1.0], [1.0, 1.0, 1.0]], [[-1.0, -1.0, -1.0], [-1.0, -1.0, -1.0], [-1.0, -1.0, -1.0]], [[-1.0, -1.0, -1.0], [-1.0, -1.0, -1.0], [1.0, 1.0, 1.0]], [[-1.0, 1.0, 1.0], [1.0, -1.0, -1.0], [1.0, -1.0, 1.0]], [[-1.0, -1.0, -1.0], [-1.0, 1.0, 1.0], [1.0, 1.0, 1.0]], [[1.0, 1.0, 1.0], [1.0, 1.0, 1.0], [1.0, 1.0, 1.0]], [[1.0, -1.0, -1.0], [1.0, 1.0, 1.0], [1.0, 1.0, -1.0]], [[-1.0, -1.0, -1.0], [-1.0, -1.0, -1.0], [1.0, 1.0, 1.0]], [[-1.0, -1.0, -1.0], [-1.0, -1.0, -1.0], [1.0, 1.0, -1.0]], [[-1.0, -1.0, -1.0], [1.0, -1.0, -1.0], [1.0, -1.0, 1.0]], [[-1.0, 1.0, 1.0], [-1.0, 1.0, 1.0], [-1.0, -1.0, 1.0]], [[1.0, 1.0, 1.0], [1.0, 1.0, 1.0], [1.0, 1.0, 1.0]], [[1.0, 1.0, 1.0], [1.0, 1.0, 1.0], [1.0, 1.0, 1.0]], [[-1.0, 1.0, -1.0], [-1.0, 1.0, -1.0], [1.0, 1.0, 1.0]], [[1.0, 1.0, 1.0], [1.0, 1.0, 1.0], [1.0, 1.0, 1.0]], [[-1.0, -1.0, -1.0], [-1.0, 1.0, -1.0], [1.0, 1.0, 1.0]], [[-1.0, -1.0, -1.0], [-1.0, 1.0, -1.0], [1.0, 1.0, 1.0]], [[1.0, 1.0, 1.0], [-1.0, -1.0, -1.0], [1.0, -1.0, -1.0]], [[-1.0, -1.0, -1.0], [1.0, 1.0, 1.0], [1.0, 1.0, 1.0]], [[1.0, 1.0, 1.0], [1.0, 1.0, 1.0], [1.0, 1.0, 1.0]], [[-1.0, -1.0, -1.0], [-1.0, 1.0, 1.0], [1.0, 1.0, 1.0]], [[1.0, 1.0, 1.0], [1.0, -1.0, -1.0], [-1.0, -1.0, -1.0]], [[-1.0, -1.0, -1.0], [-1.0, -1.0, -1.0], [1.0, -1.0, 1.0]], [[-1.0, -1.0, -1.0], [1.0, -1.0, -1.0], [-1.0, -1.0, 1.0]], [[-1.0, 1.0, 1.0], [-1.0, -1.0, -1.0], [1.0, 1.0, 1.0]], [[-1.0, -1.0, -1.0], [-1.0, -1.0, -1.0], [1.0, 1.0, 1.0]], [[-1.0, 1.0, 1.0], [1.0, 1.0, 1.0], [1.0, 1.0, 1.0]], [[1.0, 1.0, 1.0], [1.0, -1.0, -1.0], [1.0, -1.0, -1.0]], [[-1.0, -1.0, -1.0], [1.0, -1.0, -1.0], [1.0, -1.0, 1.0]], [[-1.0, -1.0, 1.0], [-1.0, -1.0, 1.0], [-1.0, -1.0, -1.0]], [[-1.0, -1.0, -1.0], [-1.0, -1.0, -1.0], [1.0, -1.0, -1.0]], [[1.0, 1.0, 1.0], [-1.0, 1.0, 1.0], [-1.0, -1.0, 1.0]], [[1.0, 1.0, 1.0], [1.0, 1.0, 1.0], [1.0, 1.0, 1.0]], [[1.0, -1.0, 1.0], [1.0, -1.0, -1.0], [-1.0, -1.0, -1.0]], [[-1.0, 1.0, -1.0], [-1.0, -1.0, -1.0], [-1.0, -1.0, -1.0]], [[1.0, 1.0, 1.0], [-1.0, -1.0, 1.0], [-1.0, -1.0, -1.0]], [[-1.0, -1.0, -1.0], [1.0, -1.0, 1.0], [1.0, 1.0, -1.0]], [[1.0, 1.0, 1.0], [1.0, 1.0, 1.0], [1.0, 1.0, 1.0]], [[1.0, 1.0, 1.0], [1.0, 1.0, 1.0], [1.0, 1.0, 1.0]], [[1.0, 1.0, 1.0], [1.0, -1.0, -1.0], [-1.0, -1.0, -1.0]], [[-1.0, 1.0, 1.0], [-1.0, -1.0, 1.0], [1.0, 1.0, -1.0]], [[1.0, -1.0, 1.0], [1.0, 1.0, 1.0], [1.0, -1.0, -1.0]], [[-1.0, 1.0, -1.0], [-1.0, -1.0, -1.0], [-1.0, 1.0, 1.0]], [[-1.0, 1.0, 1.0], [-1.0, -1.0, 1.0], [1.0, 1.0, -1.0]], [[1.0, 1.0, -1.0], [-1.0, -1.0, -1.0], [1.0, 1.0, -1.0]], [[-1.0, 1.0, -1.0], [-1.0, 1.0, -1.0], [1.0, 1.0, -1.0]], [[1.0, -1.0, -1.0], [-1.0, -1.0, -1.0], [-1.0, -1.0, -1.0]], [[-1.0, -1.0, -1.0], [-1.0, -1.0, -1.0], [-1.0, -1.0, -1.0]], [[-1.0, -1.0, -1.0], [-1.0, -1.0, -1.0], [1.0, 1.0, 1.0]], [[-1.0, -1.0, -1.0], [-1.0, -1.0, -1.0], [1.0, 1.0, 1.0]], [[-1.0, -1.0, -1.0], [-1.0, 1.0, 1.0], [1.0, 1.0, 1.0]], [[-1.0, -1.0, -1.0], [-1.0, -1.0, -1.0], [-1.0, -1.0, -1.0]], [[1.0, -1.0, 1.0], [1.0, 1.0, 1.0], [-1.0, -1.0, -1.0]], [[-1.0, -1.0, -1.0], [1.0, -1.0, 1.0], [1.0, 1.0, 1.0]]], [[[-1.0, 1.0, 1.0], [-1.0, 1.0, -1.0], [1.0, 1.0, -1.0]], [[1.0, 1.0, -1.0], [1.0, 1.0, -1.0], [-1.0, -1.0, -1.0]], [[1.0, -1.0, -1.0], [1.0, -1.0, 1.0], [1.0, -1.0, -1.0]], [[1.0, 1.0, -1.0], [1.0, 1.0, -1.0], [1.0, 1.0, -1.0]], [[-1.0, -1.0, 1.0], [-1.0, 1.0, 1.0], [-1.0, 1.0, 1.0]], [[1.0, -1.0, 1.0], [-1.0, 1.0, 1.0], [1.0, 1.0, -1.0]], [[-1.0, 1.0, 1.0], [1.0, 1.0, 1.0], [1.0, -1.0, -1.0]], [[1.0, -1.0, -1.0], [1.0, -1.0, 1.0], [1.0, -1.0, 1.0]], [[-1.0, -1.0, 1.0], [1.0, 1.0, 1.0], [1.0, 1.0, -1.0]], [[-1.0, 1.0, -1.0], [1.0, -1.0, -1.0], [1.0, -1.0, -1.0]], [[1.0, 1.0, 1.0], [1.0, 1.0, -1.0], [-1.0, -1.0, -1.0]], [[1.0, -1.0, -1.0], [1.0, -1.0, -1.0], [-1.0, -1.0, 1.0]], [[-1.0, -1.0, 1.0], [-1.0, 1.0, 1.0], [1.0, 1.0, -1.0]], [[-1.0, -1.0, 1.0], [-1.0, -1.0, 1.0], [-1.0, 1.0, 1.0]], [[1.0, 1.0, -1.0], [1.0, 1.0, -1.0], [1.0, -1.0, -1.0]], [[-1.0, -1.0, -1.0], [1.0, 1.0, 1.0], [1.0, 1.0, -1.0]], [[1.0, 1.0, -1.0], [1.0, 1.0, -1.0], [-1.0, -1.0, 1.0]], [[1.0, 1.0, -1.0], [1.0, -1.0, -1.0], [-1.0, -1.0, 1.0]], [[1.0, 1.0, -1.0], [1.0, 1.0, -1.0], [-1.0, -1.0, -1.0]], [[-1.0, 1.0, -1.0], [-1.0, 1.0, -1.0], [1.0, 1.0, -1.0]], [[-1.0, 1.0, 1.0], [-1.0, 1.0, 1.0], [1.0, 1.0, -1.0]], [[1.0, -1.0, -1.0], [-1.0, -1.0, 1.0], [-1.0, -1.0, 1.0]], [[1.0, 1.0, -1.0], [-1.0, -1.0, 1.0], [-1.0, -1.0, 1.0]], [[1.0, 1.0, -1.0], [-1.0, 1.0, -1.0], [-1.0, 1.0, -1.0]], [[1.0, 1.0, -1.0], [1.0, -1.0, -1.0], [1.0, -1.0, -1.0]], [[-1.0, 1.0, 1.0], [-1.0, 1.0, 1.0], [-1.0, 1.0, -1.0]], [[1.0, 1.0, -1.0], [1.0, -1.0, -1.0], [1.0, -1.0, 1.0]], [[1.0, -1.0, -1.0], [-1.0, -1.0, 1.0], [-1.0, 1.0, 1.0]], [[-1.0, 1.0, 1.0], [1.0, 1.0, -1.0], [1.0, -1.0, -1.0]], [[1.0, 1.0, 1.0], [1.0, -1.0, -1.0], [1.0, -1.0, -1.0]], [[-1.0, -1.0, -1.0], [-1.0, -1.0, 1.0], [1.0, 1.0, 1.0]], [[-1.0, 1.0, 1.0], [1.0, 1.0, -1.0], [-1.0, -1.0, -1.0]], [[-1.0, -1.0, -1.0], [1.0, -1.0, 1.0], [1.0, -1.0, 1.0]], [[-1.0, 1.0, -1.0], [1.0, 1.0, -1.0], [1.0, -1.0, -1.0]], [[-1.0, 1.0, 1.0], [-1.0, 1.0, -1.0], [1.0, 1.0, -1.0]], [[1.0, -1.0, -1.0], [1.0, -1.0, -1.0], [-1.0, -1.0, 1.0]], [[1.0, 1.0, 1.0], [1.0, 1.0, 1.0], [-1.0, -1.0, -1.0]], [[1.0, -1.0, -1.0], [-1.0, -1.0, 1.0], [-1.0, 1.0, 1.0]], [[-1.0, 1.0, 1.0], [-1.0, 1.0, 1.0], [-1.0, 1.0, -1.0]], [[-1.0, -1.0, 1.0], [1.0, 1.0, 1.0], [1.0, 1.0, -1.0]], [[-1.0, -1.0, 1.0], [1.0, 1.0, 1.0], [1.0, 1.0, -1.0]], [[1.0, -1.0, -1.0], [-1.0, -1.0, 1.0], [-1.0, 1.0, 1.0]], [[-1.0, -1.0, -1.0], [-1.0, -1.0, -1.0], [-1.0, -1.0, -1.0]], [[-1.0, 1.0, 1.0], [1.0, -1.0, -1.0], [1.0, -1.0, 1.0]], [[1.0, -1.0, -1.0], [-1.0, -1.0, 1.0], [1.0, 1.0, 1.0]], [[-1.0, 1.0, 1.0], [1.0, 1.0, -1.0], [1.0, -1.0, -1.0]], [[1.0, -1.0, 1.0], [1.0, -1.0, 1.0], [1.0, -1.0, 1.0]], [[-1.0, 1.0, 1.0], [-1.0, -1.0, -1.0], [-1.0, -1.0, -1.0]], [[-1.0, -1.0, 1.0], [-1.0, -1.0, 1.0], [-1.0, -1.0, 1.0]], [[-1.0, -1.0, 1.0], [-1.0, 1.0, 1.0], [1.0, 1.0, -1.0]], [[-1.0, -1.0, -1.0], [-1.0, 1.0, 1.0], [1.0, 1.0, 1.0]], [[1.0, 1.0, -1.0], [1.0, -1.0, -1.0], [1.0, -1.0, -1.0]], [[1.0, -1.0, -1.0], [-1.0, -1.0, 1.0], [-1.0, 1.0, 1.0]], [[1.0, 1.0, -1.0], [1.0, -1.0, -1.0], [-1.0, -1.0, 1.0]], [[-1.0, -1.0, 1.0], [-1.0, 1.0, 1.0], [-1.0, 1.0, -1.0]], [[1.0, -1.0, -1.0], [1.0, -1.0, -1.0], [1.0, -1.0, 1.0]], [[1.0, -1.0, 1.0], [-1.0, -1.0, 1.0], [-1.0, 1.0, 1.0]], [[-1.0, 1.0, 1.0], [1.0, 1.0, -1.0], [1.0, 1.0, -1.0]], [[-1.0, 1.0, -1.0], [1.0, 1.0, -1.0], [1.0, 1.0, -1.0]], [[1.0, 1.0, -1.0], [1.0, -1.0, -1.0], [-1.0, -1.0, 1.0]], [[1.0, 1.0, -1.0], [1.0, 1.0, -1.0], [1.0, -1.0, -1.0]], [[1.0, 1.0, 1.0], [-1.0, -1.0, -1.0], [-1.0, 1.0, -1.0]], [[-1.0, -1.0, 1.0], [-1.0, 1.0, 1.0], [1.0, 1.0, -1.0]], [[-1.0, 1.0, 1.0], [-1.0, 1.0, 1.0], [-1.0, 1.0, 1.0]]], [[[1.0, -1.0, 1.0], [-1.0, 1.0, -1.0], [1.0, 1.0, -1.0]], [[-1.0, -1.0, 1.0], [1.0, -1.0, -1.0], [-1.0, -1.0, 1.0]], [[1.0, -1.0, 1.0], [-1.0, -1.0, 1.0], [-1.0, 1.0, 1.0]], [[1.0, -1.0, 1.0], [-1.0, -1.0, 1.0], [1.0, -1.0, -1.0]], [[1.0, 1.0, 1.0], [1.0, 1.0, -1.0], [1.0, 1.0, 1.0]], [[1.0, -1.0, -1.0], [-1.0, 1.0, -1.0], [1.0, 1.0, -1.0]], [[-1.0, -1.0, -1.0], [-1.0, -1.0, -1.0], [1.0, 1.0, 1.0]], [[1.0, -1.0, -1.0], [1.0, -1.0, 1.0], [-1.0, -1.0, 1.0]], [[1.0, 1.0, 1.0], [-1.0, 1.0, -1.0], [-1.0, 1.0, -1.0]], [[-1.0, 1.0, 1.0], [1.0, -1.0, -1.0], [1.0, -1.0, 1.0]], [[1.0, -1.0, -1.0], [1.0, -1.0, 1.0], [-1.0, 1.0, 1.0]], [[-1.0, 1.0, 1.0], [1.0, 1.0, -1.0], [1.0, 1.0, -1.0]], [[1.0, -1.0, -1.0], [-1.0, 1.0, -1.0], [1.0, 1.0, -1.0]], [[-1.0, -1.0, 1.0], [-1.0, -1.0, -1.0], [-1.0, -1.0, -1.0]], [[-1.0, -1.0, 1.0], [1.0, -1.0, 1.0], [-1.0, -1.0, 1.0]], [[-1.0, -1.0, -1.0], [-1.0, -1.0, -1.0], [1.0, 1.0, 1.0]], [[-1.0, 1.0, -1.0], [1.0, -1.0, 1.0], [1.0, -1.0, 1.0]], [[1.0, 1.0, 1.0], [1.0, -1.0, 1.0], [-1.0, -1.0, 1.0]], [[-1.0, 1.0, 1.0], [1.0, 1.0, -1.0], [-1.0, -1.0, 1.0]], [[-1.0, -1.0, 1.0], [-1.0, 1.0, 1.0], [1.0, 1.0, 1.0]], [[1.0, -1.0, 1.0], [-1.0, 1.0, 1.0], [-1.0, 1.0, -1.0]], [[-1.0, -1.0, 1.0], [-1.0, 1.0, 1.0], [-1.0, 1.0, 1.0]], [[1.0, -1.0, -1.0], [1.0, -1.0, 1.0], [-1.0, -1.0, 1.0]], [[-1.0, 1.0, 1.0], [1.0, -1.0, -1.0], [-1.0, -1.0, 1.0]], [[-1.0, -1.0, 1.0], [1.0, -1.0, 1.0], [1.0, 1.0, 1.0]], [[-1.0, 1.0, -1.0], [-1.0, 1.0, -1.0], [1.0, -1.0, -1.0]], [[-1.0, 1.0, -1.0], [1.0, -1.0, 1.0], [1.0, -1.0, 1.0]], [[1.0, -1.0, 1.0], [-1.0, -1.0, 1.0], [-1.0, 1.0, -1.0]], [[-1.0, -1.0, 1.0], [1.0, 1.0, -1.0], [1.0, -1.0, 1.0]], [[-1.0, -1.0, -1.0], [1.0, -1.0, -1.0], [-1.0, 1.0, 1.0]], [[1.0, -1.0, -1.0], [1.0, -1.0, 1.0], [-1.0, 1.0, -1.0]], [[-1.0, 1.0, 1.0], [1.0, 1.0, -1.0], [1.0, -1.0, 1.0]], [[1.0, -1.0, 1.0], [1.0, -1.0, 1.0], [1.0, -1.0, -1.0]], [[-1.0, 1.0, 1.0], [1.0, 1.0, -1.0], [1.0, -1.0, 1.0]], [[-1.0, 1.0, -1.0], [-1.0, 1.0, -1.0], [1.0, 1.0, -1.0]], [[1.0, 1.0, -1.0], [1.0, -1.0, 1.0], [-1.0, 1.0, 1.0]], [[-1.0, -1.0, -1.0], [-1.0, -1.0, -1.0], [-1.0, -1.0, -1.0]], [[1.0, 1.0, -1.0], [1.0, -1.0, 1.0], [-1.0, 1.0, -1.0]], [[-1.0, 1.0, 1.0], [1.0, 1.0, -1.0], [1.0, -1.0, -1.0]], [[1.0, -1.0, -1.0], [-1.0, -1.0, -1.0], [-1.0, -1.0, -1.0]], [[1.0, 1.0, 1.0], [1.0, 1.0, -1.0], [-1.0, -1.0, -1.0]], [[1.0, -1.0, -1.0], [1.0, -1.0, 1.0], [-1.0, 1.0, -1.0]], [[1.0, -1.0, -1.0], [-1.0, -1.0, 1.0], [-1.0, -1.0, 1.0]], [[-1.0, 1.0, 1.0], [1.0, -1.0, 1.0], [-1.0, -1.0, 1.0]], [[1.0, 1.0, -1.0], [1.0, 1.0, -1.0], [1.0, 1.0, -1.0]], [[-1.0, -1.0, 1.0], [-1.0, 1.0, -1.0], [1.0, -1.0, -1.0]], [[-1.0, -1.0, -1.0], [1.0, -1.0, 1.0], [1.0, -1.0, 1.0]], [[-1.0, -1.0, 1.0], [-1.0, 1.0, 1.0], [-1.0, 1.0, 1.0]], [[-1.0, -1.0, 1.0], [-1.0, 1.0, 1.0], [1.0, 1.0, 1.0]], [[-1.0, -1.0, 1.0], [-1.0, 1.0, -1.0], [1.0, -1.0, -1.0]], [[1.0, 1.0, 1.0], [-1.0, 1.0, -1.0], [-1.0, 1.0, -1.0]], [[-1.0, 1.0, 1.0], [-1.0, -1.0, 1.0], [-1.0, 1.0, 1.0]], [[1.0, -1.0, -1.0], [1.0, -1.0, 1.0], [-1.0, 1.0, 1.0]], [[-1.0, 1.0, -1.0], [1.0, -1.0, -1.0], [-1.0, -1.0, 1.0]], [[1.0, -1.0, 1.0], [-1.0, 1.0, -1.0], [-1.0, 1.0, -1.0]], [[1.0, 1.0, 1.0], [1.0, -1.0, -1.0], [-1.0, -1.0, 1.0]], [[1.0, 1.0, -1.0], [1.0, 1.0, -1.0], [-1.0, 1.0, -1.0]], [[-1.0, 1.0, 1.0], [-1.0, 1.0, -1.0], [1.0, -1.0, -1.0]], [[-1.0, -1.0, 1.0], [-1.0, 1.0, -1.0], [-1.0, 1.0, 1.0]], [[-1.0, 1.0, -1.0], [1.0, -1.0, -1.0], [1.0, -1.0, 1.0]], [[-1.0, -1.0, 1.0], [1.0, -1.0, 1.0], [-1.0, -1.0, 1.0]], [[1.0, 1.0, 1.0], [-1.0, -1.0, -1.0], [-1.0, 1.0, -1.0]], [[-1.0, 1.0, -1.0], [-1.0, 1.0, -1.0], [1.0, 1.0, -1.0]], [[-1.0, -1.0, 1.0], [-1.0, 1.0, -1.0], [-1.0, 1.0, -1.0]]], [[[1.0, 1.0, -1.0], [-1.0, 1.0, 1.0], [1.0, -1.0, -1.0]], [[1.0, -1.0, -1.0], [-1.0, 1.0, 1.0], [1.0, -1.0, -1.0]], [[-1.0, 1.0, -1.0], [-1.0, 1.0, 1.0], [1.0, -1.0, 1.0]], [[1.0, -1.0, -1.0], [1.0, 1.0, 1.0], [-1.0, 1.0, 1.0]], [[-1.0, 1.0, -1.0], [-1.0, 1.0, 1.0], [1.0, -1.0, 1.0]], [[1.0, 1.0, -1.0], [-1.0, 1.0, -1.0], [-1.0, -1.0, 1.0]], [[1.0, -1.0, 1.0], [1.0, -1.0, 1.0], [-1.0, -1.0, -1.0]], [[-1.0, 1.0, -1.0], [-1.0, 1.0, 1.0], [1.0, -1.0, 1.0]], [[1.0, 1.0, -1.0], [-1.0, -1.0, 1.0], [1.0, -1.0, 1.0]], [[-1.0, 1.0, -1.0], [-1.0, -1.0, 1.0], [1.0, -1.0, -1.0]], [[-1.0, 1.0, -1.0], [-1.0, 1.0, 1.0], [1.0, 1.0, 1.0]], [[-1.0, -1.0, 1.0], [-1.0, -1.0, -1.0], [-1.0, -1.0, -1.0]], [[1.0, 1.0, -1.0], [-1.0, 1.0, 1.0], [-1.0, -1.0, 1.0]], [[-1.0, 1.0, -1.0], [-1.0, 1.0, 1.0], [1.0, -1.0, 1.0]], [[-1.0, 1.0, 1.0], [-1.0, -1.0, 1.0], [1.0, -1.0, 1.0]], [[1.0, 1.0, 1.0], [-1.0, 1.0, 1.0], [-1.0, -1.0, -1.0]], [[-1.0, 1.0, -1.0], [-1.0, 1.0, 1.0], [-1.0, -1.0, 1.0]], [[-1.0, -1.0, -1.0], [1.0, 1.0, 1.0], [1.0, 1.0, 1.0]], [[-1.0, 1.0, -1.0], [-1.0, -1.0, 1.0], [1.0, -1.0, 1.0]], [[-1.0, 1.0, -1.0], [-1.0, 1.0, -1.0], [-1.0, -1.0, 1.0]], [[-1.0, 1.0, 1.0], [1.0, -1.0, 1.0], [-1.0, -1.0, -1.0]], [[1.0, 1.0, 1.0], [-1.0, 1.0, 1.0], [-1.0, 1.0, -1.0]], [[1.0, 1.0, 1.0], [1.0, -1.0, 1.0], [1.0, 1.0, 1.0]], [[1.0, -1.0, 1.0], [1.0, -1.0, -1.0], [-1.0, 1.0, -1.0]], [[1.0, 1.0, -1.0], [-1.0, 1.0, 1.0], [-1.0, -1.0, -1.0]], [[1.0, -1.0, 1.0], [-1.0, 1.0, -1.0], [-1.0, 1.0, 1.0]], [[-1.0, 1.0, -1.0], [-1.0, 1.0, 1.0], [-1.0, -1.0, 1.0]], [[-1.0, 1.0, -1.0], [-1.0, 1.0, 1.0], [1.0, -1.0, 1.0]], [[-1.0, -1.0, 1.0], [1.0, -1.0, 1.0], [-1.0, 1.0, -1.0]], [[1.0, -1.0, 1.0], [1.0, 1.0, -1.0], [-1.0, 1.0, -1.0]], [[1.0, -1.0, -1.0], [-1.0, 1.0, -1.0], [1.0, -1.0, 1.0]], [[-1.0, -1.0, 1.0], [1.0, -1.0, 1.0], [-1.0, 1.0, -1.0]], [[-1.0, 1.0, -1.0], [-1.0, 1.0, -1.0], [1.0, -1.0, 1.0]], [[-1.0, -1.0, 1.0], [1.0, -1.0, -1.0], [-1.0, 1.0, 1.0]], [[1.0, -1.0, 1.0], [-1.0, 1.0, -1.0], [-1.0, 1.0, 1.0]], [[1.0, -1.0, 1.0], [1.0, 1.0, -1.0], [-1.0, 1.0, -1.0]], [[1.0, 1.0, -1.0], [-1.0, 1.0, 1.0], [1.0, 1.0, 1.0]], [[-1.0, 1.0, -1.0], [-1.0, 1.0, 1.0], [1.0, -1.0, 1.0]], [[-1.0, 1.0, 1.0], [-1.0, -1.0, 1.0], [1.0, 1.0, -1.0]], [[-1.0, -1.0, 1.0], [-1.0, 1.0, 1.0], [-1.0, 1.0, 1.0]], [[1.0, 1.0, 1.0], [1.0, 1.0, -1.0], [-1.0, 1.0, -1.0]], [[1.0, -1.0, 1.0], [1.0, -1.0, -1.0], [-1.0, 1.0, -1.0]], [[-1.0, -1.0, 1.0], [-1.0, -1.0, -1.0], [-1.0, -1.0, -1.0]], [[-1.0, -1.0, 1.0], [1.0, -1.0, 1.0], [1.0, 1.0, -1.0]], [[1.0, -1.0, 1.0], [-1.0, -1.0, -1.0], [1.0, -1.0, -1.0]], [[-1.0, 1.0, -1.0], [-1.0, -1.0, 1.0], [-1.0, 1.0, 1.0]], [[-1.0, 1.0, -1.0], [-1.0, -1.0, 1.0], [1.0, -1.0, 1.0]], [[-1.0, -1.0, -1.0], [-1.0, -1.0, -1.0], [-1.0, -1.0, -1.0]], [[-1.0, 1.0, -1.0], [-1.0, 1.0, -1.0], [-1.0, -1.0, 1.0]], [[-1.0, 1.0, 1.0], [-1.0, -1.0, 1.0], [1.0, 1.0, -1.0]], [[-1.0, 1.0, -1.0], [-1.0, -1.0, 1.0], [1.0, -1.0, 1.0]], [[-1.0, -1.0, 1.0], [1.0, -1.0, -1.0], [1.0, 1.0, -1.0]], [[-1.0, -1.0, 1.0], [1.0, 1.0, 1.0], [1.0, -1.0, -1.0]], [[-1.0, -1.0, 1.0], [-1.0, -1.0, 1.0], [1.0, 1.0, -1.0]], [[-1.0, 1.0, -1.0], [-1.0, -1.0, 1.0], [1.0, -1.0, 1.0]], [[1.0, 1.0, -1.0], [-1.0, -1.0, 1.0], [-1.0, -1.0, -1.0]], [[-1.0, 1.0, -1.0], [-1.0, -1.0, -1.0], [1.0, -1.0, 1.0]], [[1.0, -1.0, 1.0], [1.0, -1.0, -1.0], [-1.0, 1.0, -1.0]], [[1.0, -1.0, 1.0], [1.0, -1.0, -1.0], [-1.0, 1.0, -1.0]], [[1.0, -1.0, -1.0], [-1.0, 1.0, -1.0], [-1.0, 1.0, 1.0]], [[-1.0, 1.0, -1.0], [1.0, -1.0, 1.0], [1.0, -1.0, 1.0]], [[1.0, -1.0, -1.0], [1.0, -1.0, -1.0], [-1.0, -1.0, -1.0]], [[-1.0, 1.0, 1.0], [-1.0, -1.0, 1.0], [1.0, -1.0, -1.0]], [[1.0, 1.0, -1.0], [1.0, 1.0, 1.0], [-1.0, -1.0, -1.0]]], [[[1.0, -1.0, -1.0], [1.0, -1.0, -1.0], [1.0, 1.0, -1.0]], [[1.0, -1.0, -1.0], [1.0, 1.0, -1.0], [-1.0, -1.0, -1.0]], [[1.0, -1.0, -1.0], [1.0, 1.0, -1.0], [1.0, -1.0, -1.0]], [[1.0, 1.0, 1.0], [1.0, 1.0, -1.0], [1.0, -1.0, -1.0]], [[1.0, 1.0, 1.0], [1.0, 1.0, 1.0], [1.0, 1.0, 1.0]], [[1.0, 1.0, -1.0], [-1.0, -1.0, -1.0], [-1.0, -1.0, -1.0]], [[-1.0, -1.0, -1.0], [-1.0, -1.0, -1.0], [-1.0, -1.0, -1.0]], [[-1.0, 1.0, 1.0], [1.0, -1.0, 1.0], [1.0, -1.0, 1.0]], [[-1.0, -1.0, 1.0], [-1.0, -1.0, 1.0], [1.0, -1.0, 1.0]], [[-1.0, -1.0, -1.0], [1.0, -1.0, -1.0], [1.0, 1.0, 1.0]], [[1.0, 1.0, 1.0], [1.0, 1.0, 1.0], [1.0, 1.0, 1.0]], [[1.0, 1.0, -1.0], [-1.0, 1.0, 1.0], [-1.0, 1.0, -1.0]], [[1.0, 1.0, 1.0], [1.0, 1.0, 1.0], [-1.0, -1.0, 1.0]], [[-1.0, -1.0, -1.0], [-1.0, -1.0, -1.0], [-1.0, -1.0, -1.0]], [[1.0, 1.0, 1.0], [1.0, -1.0, 1.0], [-1.0, -1.0, -1.0]], [[-1.0, -1.0, -1.0], [-1.0, -1.0, -1.0], [-1.0, -1.0, -1.0]], [[-1.0, 1.0, 1.0], [-1.0, -1.0, -1.0], [-1.0, 1.0, -1.0]], [[-1.0, -1.0, -1.0], [1.0, -1.0, 1.0], [1.0, 1.0, 1.0]], [[-1.0, 1.0, -1.0], [1.0, 1.0, 1.0], [1.0, -1.0, -1.0]], [[1.0, 1.0, 1.0], [-1.0, -1.0, 1.0], [-1.0, -1.0, 1.0]], [[1.0, -1.0, 1.0], [1.0, -1.0, 1.0], [1.0, -1.0, -1.0]], [[-1.0, 1.0, -1.0], [-1.0, -1.0, -1.0], [-1.0, -1.0, -1.0]], [[1.0, 1.0, 1.0], [1.0, 1.0, 1.0], [1.0, 1.0, 1.0]], [[-1.0, -1.0, -1.0], [1.0, 1.0, 1.0], [-1.0, -1.0, 1.0]], [[-1.0, -1.0, -1.0], [-1.0, -1.0, -1.0], [-1.0, -1.0, -1.0]], [[-1.0, 1.0, 1.0], [-1.0, 1.0, 1.0], [1.0, -1.0, -1.0]], [[-1.0, -1.0, -1.0], [1.0, 1.0, -1.0], [1.0, 1.0, 1.0]], [[-1.0, -1.0, -1.0], [1.0, -1.0, 1.0], [1.0, 1.0, 1.0]], [[1.0, 1.0, 1.0], [1.0, 1.0, 1.0], [1.0, 1.0, 1.0]], [[-1.0, -1.0, -1.0], [-1.0, -1.0, -1.0], [-1.0, -1.0, -1.0]], [[1.0, -1.0, -1.0], [1.0, 1.0, 1.0], [1.0, -1.0, -1.0]], [[1.0, 1.0, -1.0], [-1.0, -1.0, -1.0], [-1.0, 1.0, 1.0]], [[1.0, 1.0, -1.0], [1.0, 1.0, 1.0], [1.0, 1.0, 1.0]], [[1.0, 1.0, 1.0], [-1.0, 1.0, 1.0], [-1.0, 1.0, 1.0]], [[-1.0, 1.0, 1.0], [1.0, -1.0, 1.0], [1.0, -1.0, -1.0]], [[-1.0, 1.0, 1.0], [1.0, 1.0, -1.0], [-1.0, 1.0, 1.0]], [[1.0, 1.0, 1.0], [1.0, 1.0, 1.0], [1.0, 1.0, 1.0]], [[1.0, -1.0, 1.0], [-1.0, -1.0, -1.0], [1.0, -1.0, 1.0]], [[1.0, 1.0, 1.0], [-1.0, -1.0, 1.0], [-1.0, 1.0, 1.0]], [[1.0, 1.0, 1.0], [1.0, 1.0, 1.0], [1.0, 1.0, 1.0]], [[1.0, 1.0, 1.0], [1.0, 1.0, 1.0], [1.0, 1.0, 1.0]], [[-1.0, -1.0, 1.0], [-1.0, -1.0, -1.0], [-1.0, 1.0, 1.0]], [[1.0, -1.0, -1.0], [-1.0, -1.0, -1.0], [-1.0, -1.0, -1.0]], [[-1.0, 1.0, 1.0], [-1.0, -1.0, -1.0], [1.0, 1.0, 1.0]], [[-1.0, -1.0, -1.0], [-1.0, -1.0, -1.0], [-1.0, -1.0, -1.0]], [[-1.0, -1.0, 1.0], [-1.0, -1.0, 1.0], [1.0, -1.0, 1.0]], [[-1.0, 1.0, 1.0], [1.0, -1.0, 1.0], [1.0, -1.0, -1.0]], [[-1.0, -1.0, -1.0], [-1.0, -1.0, -1.0], [-1.0, -1.0, -1.0]], [[-1.0, -1.0, -1.0], [-1.0, -1.0, -1.0], [-1.0, -1.0, -1.0]], [[-1.0, -1.0, 1.0], [-1.0, -1.0, 1.0], [1.0, -1.0, 1.0]], [[1.0, -1.0, -1.0], [1.0, -1.0, -1.0], [1.0, 1.0, 1.0]], [[-1.0, 1.0, 1.0], [-1.0, 1.0, -1.0], [-1.0, -1.0, -1.0]], [[1.0, 1.0, 1.0], [1.0, 1.0, -1.0], [-1.0, -1.0, -1.0]], [[-1.0, 1.0, -1.0], [-1.0, -1.0, 1.0], [-1.0, -1.0, -1.0]], [[1.0, -1.0, -1.0], [1.0, 1.0, -1.0], [1.0, -1.0, 1.0]], [[1.0, 1.0, -1.0], [1.0, 1.0, 1.0], [-1.0, 1.0, 1.0]], [[-1.0, -1.0, -1.0], [1.0, 1.0, -1.0], [1.0, -1.0, -1.0]], [[-1.0, -1.0, -1.0], [1.0, 1.0, 1.0], [-1.0, 1.0, 1.0]], [[-1.0, 1.0, 1.0], [1.0, 1.0, 1.0], [-1.0, 1.0, 1.0]], [[-1.0, 1.0, -1.0], [1.0, 1.0, 1.0], [-1.0, -1.0, 1.0]], [[1.0, 1.0, 1.0], [1.0, 1.0, 1.0], [-1.0, -1.0, -1.0]], [[-1.0, -1.0, -1.0], [-1.0, 1.0, -1.0], [1.0, 1.0, 1.0]], [[1.0, 1.0, -1.0], [1.0, 1.0, -1.0], [1.0, -1.0, -1.0]], [[1.0, 1.0, 1.0], [1.0, 1.0, 1.0], [1.0, 1.0, 1.0]]], [[[-1.0, 1.0, -1.0], [1.0, 1.0, 1.0], [-1.0, -1.0, -1.0]], [[-1.0, 1.0, -1.0], [1.0, 1.0, 1.0], [-1.0, -1.0, -1.0]], [[1.0, -1.0, -1.0], [1.0, 1.0, -1.0], [-1.0, 1.0, 1.0]], [[1.0, 1.0, -1.0], [-1.0, -1.0, -1.0], [1.0, 1.0, -1.0]], [[1.0, 1.0, -1.0], [-1.0, -1.0, -1.0], [-1.0, -1.0, -1.0]], [[1.0, -1.0, -1.0], [-1.0, 1.0, -1.0], [1.0, 1.0, 1.0]], [[-1.0, -1.0, -1.0], [1.0, 1.0, 1.0], [1.0, -1.0, 1.0]], [[1.0, -1.0, 1.0], [-1.0, 1.0, -1.0], [-1.0, 1.0, -1.0]], [[1.0, 1.0, -1.0], [1.0, 1.0, 1.0], [-1.0, -1.0, -1.0]], [[1.0, -1.0, -1.0], [-1.0, 1.0, 1.0], [-1.0, 1.0, 1.0]], [[1.0, 1.0, 1.0], [1.0, 1.0, 1.0], [1.0, 1.0, 1.0]], [[-1.0, 1.0, -1.0], [1.0, 1.0, 1.0], [-1.0, -1.0, 1.0]], [[1.0, 1.0, -1.0], [-1.0, -1.0, -1.0], [1.0, -1.0, 1.0]], [[1.0, -1.0, -1.0], [-1.0, 1.0, 1.0], [-1.0, -1.0, 1.0]], [[-1.0, 1.0, -1.0], [1.0, 1.0, 1.0], [-1.0, -1.0, -1.0]], [[-1.0, 1.0, 1.0], [-1.0, -1.0, -1.0], [-1.0, -1.0, 1.0]], [[-1.0, -1.0, -1.0], [1.0, 1.0, 1.0], [1.0, 1.0, 1.0]], [[1.0, 1.0, 1.0], [-1.0, -1.0, -1.0], [-1.0, 1.0, -1.0]], [[1.0, -1.0, -1.0], [1.0, 1.0, 1.0], [-1.0, -1.0, -1.0]], [[-1.0, -1.0, -1.0], [1.0, 1.0, 1.0], [1.0, 1.0, 1.0]], [[-1.0, 1.0, 1.0], [-1.0, -1.0, -1.0], [1.0, -1.0, 1.0]], [[1.0, 1.0, 1.0], [-1.0, -1.0, 1.0], [-1.0, 1.0, 1.0]], [[1.0, 1.0, 1.0], [-1.0, 1.0, 1.0], [1.0, -1.0, -1.0]], [[-1.0, 1.0, 1.0], [1.0, -1.0, 1.0], [-1.0, -1.0, -1.0]], [[1.0, -1.0, -1.0], [1.0, 1.0, 1.0], [-1.0, 1.0, 1.0]], [[1.0, 1.0, 1.0], [-1.0, -1.0, 1.0], [-1.0, -1.0, -1.0]], [[1.0, -1.0, 1.0], [-1.0, 1.0, -1.0], [-1.0, 1.0, 1.0]], [[-1.0, -1.0, 1.0], [1.0, 1.0, 1.0], [-1.0, -1.0, -1.0]], [[1.0, 1.0, -1.0], [1.0, 1.0, 1.0], [1.0, 1.0, 1.0]], [[-1.0, -1.0, 1.0], [1.0, -1.0, 1.0], [1.0, 1.0, -1.0]], [[-1.0, -1.0, 1.0], [1.0, 1.0, 1.0], [-1.0, 1.0, -1.0]], [[1.0, 1.0, -1.0], [-1.0, -1.0, -1.0], [1.0, -1.0, 1.0]], [[1.0, -1.0, 1.0], [1.0, 1.0, -1.0], [-1.0, 1.0, -1.0]], [[-1.0, 1.0, 1.0], [-1.0, -1.0, -1.0], [1.0, 1.0, 1.0]], [[1.0, 1.0, 1.0], [-1.0, -1.0, -1.0], [-1.0, -1.0, -1.0]], [[-1.0, -1.0, 1.0], [1.0, 1.0, 1.0], [-1.0, -1.0, -1.0]], [[-1.0, -1.0, -1.0], [-1.0, -1.0, -1.0], [-1.0, 1.0, 1.0]], [[1.0, 1.0, -1.0], [-1.0, 1.0, -1.0], [-1.0, -1.0, 1.0]], [[1.0, 1.0, 1.0], [-1.0, -1.0, -1.0], [1.0, -1.0, 1.0]], [[-1.0, -1.0, -1.0], [-1.0, -1.0, 1.0], [1.0, 1.0, 1.0]], [[1.0, 1.0, 1.0], [1.0, 1.0, 1.0], [1.0, 1.0, 1.0]], [[-1.0, 1.0, 1.0], [-1.0, -1.0, -1.0], [1.0, 1.0, 1.0]], [[-1.0, 1.0, 1.0], [-1.0, -1.0, -1.0], [-1.0, -1.0, -1.0]], [[1.0, 1.0, 1.0], [-1.0, -1.0, -1.0], [1.0, 1.0, -1.0]], [[-1.0, -1.0, 1.0], [-1.0, -1.0, -1.0], [1.0, -1.0, -1.0]], [[1.0, 1.0, -1.0], [-1.0, -1.0, -1.0], [1.0, 1.0, -1.0]], [[1.0, -1.0, 1.0], [-1.0, 1.0, -1.0], [-1.0, 1.0, 1.0]], [[-1.0, -1.0, -1.0], [1.0, 1.0, -1.0], [1.0, 1.0, -1.0]], [[-1.0, -1.0, -1.0], [-1.0, -1.0, -1.0], [-1.0, 1.0, 1.0]], [[1.0, 1.0, -1.0], [-1.0, -1.0, 1.0], [1.0, 1.0, -1.0]], [[1.0, 1.0, -1.0], [-1.0, 1.0, -1.0], [-1.0, -1.0, 1.0]], [[-1.0, -1.0, -1.0], [1.0, -1.0, 1.0], [1.0, 1.0, 1.0]], [[1.0, 1.0, 1.0], [-1.0, -1.0, -1.0], [-1.0, 1.0, 1.0]], [[-1.0, -1.0, -1.0], [1.0, 1.0, 1.0], [-1.0, -1.0, 1.0]], [[-1.0, 1.0, -1.0], [-1.0, 1.0, 1.0], [-1.0, -1.0, -1.0]], [[1.0, -1.0, -1.0], [1.0, 1.0, 1.0], [-1.0, 1.0, 1.0]], [[-1.0, -1.0, -1.0], [-1.0, 1.0, -1.0], [-1.0, -1.0, 1.0]], [[-1.0, -1.0, 1.0], [1.0, 1.0, 1.0], [-1.0, -1.0, -1.0]], [[-1.0, -1.0, 1.0], [1.0, -1.0, 1.0], [1.0, -1.0, -1.0]], [[1.0, -1.0, -1.0], [1.0, 1.0, 1.0], [-1.0, -1.0, -1.0]], [[1.0, 1.0, -1.0], [-1.0, 1.0, 1.0], [-1.0, -1.0, -1.0]], [[-1.0, -1.0, 1.0], [1.0, 1.0, 1.0], [-1.0, -1.0, 1.0]], [[-1.0, -1.0, -1.0], [1.0, 1.0, 1.0], [1.0, -1.0, 1.0]], [[1.0, -1.0, 1.0], [-1.0, 1.0, 1.0], [-1.0, -1.0, -1.0]]], [[[-1.0, -1.0, -1.0], [-1.0, -1.0, -1.0], [1.0, 1.0, 1.0]], [[-1.0, -1.0, -1.0], [-1.0, 1.0, -1.0], [-1.0, 1.0, 1.0]], [[-1.0, -1.0, 1.0], [-1.0, 1.0, 1.0], [1.0, -1.0, 1.0]], [[1.0, 1.0, -1.0], [1.0, 1.0, -1.0], [-1.0, 1.0, -1.0]], [[-1.0, -1.0, 1.0], [1.0, 1.0, 1.0], [1.0, 1.0, 1.0]], [[1.0, 1.0, 1.0], [-1.0, 1.0, -1.0], [-1.0, -1.0, -1.0]], [[1.0, 1.0, 1.0], [-1.0, -1.0, -1.0], [-1.0, -1.0, -1.0]], [[1.0, 1.0, 1.0], [1.0, 1.0, -1.0], [1.0, -1.0, -1.0]], [[-1.0, 1.0, 1.0], [-1.0, -1.0, 1.0], [-1.0, -1.0, -1.0]], [[-1.0, 1.0, 1.0], [-1.0, 1.0, -1.0], [-1.0, 1.0, 1.0]], [[1.0, 1.0, 1.0], [1.0, 1.0, 1.0], [1.0, -1.0, 1.0]], [[-1.0, -1.0, -1.0], [1.0, -1.0, -1.0], [1.0, -1.0, -1.0]], [[1.0, 1.0, -1.0], [1.0, 1.0, -1.0], [1.0, 1.0, -1.0]], [[1.0, -1.0, 1.0], [1.0, -1.0, 1.0], [1.0, -1.0, -1.0]], [[1.0, 1.0, 1.0], [1.0, 1.0, 1.0], [-1.0, -1.0, -1.0]], [[-1.0, 1.0, 1.0], [-1.0, -1.0, -1.0], [-1.0, -1.0, -1.0]], [[1.0, 1.0, 1.0], [1.0, 1.0, -1.0], [1.0, -1.0, 1.0]], [[-1.0, -1.0, -1.0], [-1.0, -1.0, 1.0], [-1.0, 1.0, 1.0]], [[-1.0, -1.0, 1.0], [1.0, -1.0, 1.0], [1.0, 1.0, 1.0]], [[1.0, 1.0, 1.0], [-1.0, -1.0, -1.0], [-1.0, -1.0, 1.0]], [[-1.0, -1.0, 1.0], [-1.0, -1.0, -1.0], [-1.0, 1.0, 1.0]], [[1.0, 1.0, -1.0], [1.0, 1.0, -1.0], [1.0, 1.0, -1.0]], [[1.0, 1.0, 1.0], [1.0, 1.0, 1.0], [-1.0, -1.0, 1.0]], [[1.0, -1.0, -1.0], [1.0, 1.0, 1.0], [1.0, -1.0, -1.0]], [[-1.0, -1.0, 1.0], [-1.0, -1.0, 1.0], [-1.0, -1.0, -1.0]], [[1.0, -1.0, 1.0], [1.0, 1.0, 1.0], [-1.0, -1.0, -1.0]], [[-1.0, -1.0, 1.0], [1.0, 1.0, 1.0], [1.0, 1.0, -1.0]], [[-1.0, -1.0, -1.0], [-1.0, -1.0, 1.0], [1.0, 1.0, 1.0]], [[1.0, 1.0, 1.0], [-1.0, 1.0, 1.0], [-1.0, -1.0, 1.0]], [[1.0, 1.0, 1.0], [-1.0, -1.0, -1.0], [-1.0, -1.0, -1.0]], [[1.0, 1.0, 1.0], [1.0, 1.0, 1.0], [-1.0, -1.0, -1.0]], [[1.0, -1.0, -1.0], [1.0, -1.0, -1.0], [1.0, -1.0, -1.0]], [[-1.0, -1.0, -1.0], [1.0, 1.0, 1.0], [1.0, 1.0, -1.0]], [[-1.0, 1.0, -1.0], [1.0, -1.0, -1.0], [1.0, 1.0, 1.0]], [[-1.0, 1.0, 1.0], [-1.0, 1.0, 1.0], [-1.0, -1.0, 1.0]], [[1.0, 1.0, -1.0], [1.0, 1.0, 1.0], [1.0, -1.0, -1.0]], [[1.0, -1.0, 1.0], [-1.0, -1.0, 1.0], [-1.0, -1.0, 1.0]], [[-1.0, -1.0, -1.0], [-1.0, -1.0, -1.0], [1.0, 1.0, -1.0]], [[1.0, 1.0, -1.0], [1.0, 1.0, -1.0], [1.0, 1.0, -1.0]], [[1.0, -1.0, -1.0], [1.0, -1.0, -1.0], [1.0, -1.0, -1.0]], [[-1.0, -1.0, -1.0], [1.0, 1.0, -1.0], [1.0, 1.0, 1.0]], [[-1.0, 1.0, -1.0], [1.0, 1.0, -1.0], [1.0, 1.0, -1.0]], [[-1.0, -1.0, -1.0], [-1.0, -1.0, -1.0], [-1.0, -1.0, -1.0]], [[-1.0, -1.0, -1.0], [1.0, -1.0, -1.0], [1.0, 1.0, 1.0]], [[-1.0, -1.0, -1.0], [1.0, -1.0, -1.0], [1.0, 1.0, 1.0]], [[-1.0, -1.0, -1.0], [-1.0, -1.0, -1.0], [-1.0, 1.0, 1.0]], [[1.0, 1.0, 1.0], [-1.0, 1.0, 1.0], [-1.0, -1.0, 1.0]], [[1.0, 1.0, 1.0], [-1.0, -1.0, -1.0], [-1.0, -1.0, -1.0]], [[1.0, 1.0, 1.0], [-1.0, 1.0, 1.0], [-1.0, -1.0, -1.0]], [[1.0, -1.0, -1.0], [-1.0, -1.0, -1.0], [1.0, -1.0, 1.0]], [[1.0, -1.0, -1.0], [1.0, -1.0, 1.0], [1.0, 1.0, -1.0]], [[-1.0, 1.0, 1.0], [-1.0, 1.0, 1.0], [-1.0, -1.0, 1.0]], [[-1.0, 1.0, -1.0], [1.0, 1.0, 1.0], [1.0, -1.0, -1.0]], [[1.0, 1.0, 1.0], [1.0, -1.0, -1.0], [1.0, -1.0, -1.0]], [[-1.0, -1.0, -1.0], [1.0, 1.0, 1.0], [1.0, -1.0, -1.0]], [[1.0, 1.0, 1.0], [1.0, 1.0, 1.0], [1.0, -1.0, 1.0]], [[1.0, -1.0, -1.0], [1.0, 1.0, -1.0], [1.0, 1.0, 1.0]], [[-1.0, -1.0, -1.0], [-1.0, -1.0, -1.0], [1.0, 1.0, 1.0]], [[-1.0, 1.0, -1.0], [1.0, 1.0, 1.0], [-1.0, 1.0, -1.0]], [[1.0, 1.0, -1.0], [1.0, 1.0, -1.0], [1.0, 1.0, -1.0]], [[1.0, 1.0, 1.0], [1.0, 1.0, 1.0], [1.0, -1.0, -1.0]], [[-1.0, -1.0, -1.0], [-1.0, -1.0, -1.0], [1.0, 1.0, 1.0]], [[1.0, 1.0, -1.0], [1.0, 1.0, -1.0], [1.0, 1.0, -1.0]], [[1.0, -1.0, -1.0], [1.0, 1.0, -1.0], [1.0, 1.0, 1.0]]], [[[-1.0, -1.0, -1.0], [1.0, -1.0, 1.0], [1.0, 1.0, 1.0]], [[1.0, 1.0, 1.0], [1.0, 1.0, -1.0], [1.0, -1.0, 1.0]], [[-1.0, 1.0, 1.0], [1.0, 1.0, -1.0], [1.0, -1.0, -1.0]], [[1.0, 1.0, 1.0], [1.0, 1.0, 1.0], [1.0, -1.0, -1.0]], [[-1.0, -1.0, -1.0], [-1.0, -1.0, 1.0], [-1.0, 1.0, 1.0]], [[1.0, -1.0, -1.0], [-1.0, -1.0, 1.0], [1.0, 1.0, 1.0]], [[-1.0, 1.0, -1.0], [1.0, 1.0, 1.0], [1.0, -1.0, -1.0]], [[1.0, -1.0, 1.0], [1.0, 1.0, -1.0], [-1.0, -1.0, -1.0]], [[-1.0, -1.0, -1.0], [-1.0, 1.0, 1.0], [1.0, 1.0, 1.0]], [[1.0, 1.0, 1.0], [1.0, 1.0, 1.0], [1.0, 1.0, -1.0]], [[1.0, 1.0, 1.0], [1.0, 1.0, 1.0], [1.0, -1.0, -1.0]], [[1.0, 1.0, 1.0], [1.0, 1.0, 1.0], [1.0, 1.0, -1.0]], [[-1.0, -1.0, -1.0], [1.0, -1.0, 1.0], [1.0, -1.0, 1.0]], [[1.0, -1.0, -1.0], [-1.0, -1.0, -1.0], [-1.0, 1.0, 1.0]], [[1.0, 1.0, 1.0], [1.0, 1.0, -1.0], [1.0, -1.0, -1.0]], [[-1.0, -1.0, -1.0], [-1.0, -1.0, -1.0], [-1.0, 1.0, 1.0]], [[1.0, 1.0, 1.0], [1.0, 1.0, -1.0], [-1.0, -1.0, -1.0]], [[1.0, 1.0, 1.0], [1.0, 1.0, -1.0], [-1.0, -1.0, -1.0]], [[1.0, 1.0, 1.0], [1.0, 1.0, -1.0], [1.0, -1.0, -1.0]], [[-1.0, -1.0, 1.0], [-1.0, 1.0, 1.0], [1.0, 1.0, 1.0]], [[-1.0, -1.0, 1.0], [-1.0, -1.0, 1.0], [-1.0, 1.0, 1.0]], [[-1.0, -1.0, 1.0], [-1.0, -1.0, 1.0], [-1.0, 1.0, 1.0]], [[-1.0, -1.0, -1.0], [-1.0, -1.0, -1.0], [-1.0, -1.0, 1.0]], [[1.0, -1.0, -1.0], [1.0, 1.0, 1.0], [-1.0, -1.0, -1.0]], [[1.0, 1.0, 1.0], [1.0, -1.0, -1.0], [-1.0, 1.0, -1.0]], [[-1.0, -1.0, -1.0], [1.0, -1.0, 1.0], [1.0, -1.0, 1.0]], [[1.0, 1.0, -1.0], [1.0, 1.0, -1.0], [-1.0, -1.0, -1.0]], [[-1.0, -1.0, -1.0], [1.0, 1.0, -1.0], [1.0, 1.0, 1.0]], [[1.0, 1.0, 1.0], [1.0, 1.0, 1.0], [1.0, 1.0, -1.0]], [[-1.0, -1.0, -1.0], [-1.0, 1.0, 1.0], [-1.0, 1.0, 1.0]], [[-1.0, 1.0, 1.0], [1.0, 1.0, -1.0], [-1.0, -1.0, -1.0]], [[1.0, -1.0, -1.0], [-1.0, -1.0, 1.0], [1.0, 1.0, 1.0]], [[-1.0, -1.0, -1.0], [-1.0, 1.0, -1.0], [1.0, 1.0, -1.0]], [[-1.0, -1.0, 1.0], [-1.0, 1.0, 1.0], [1.0, 1.0, -1.0]], [[-1.0, -1.0, -1.0], [-1.0, -1.0, 1.0], [-1.0, 1.0, 1.0]], [[1.0, -1.0, 1.0], [1.0, 1.0, -1.0], [-1.0, -1.0, -1.0]], [[1.0, -1.0, 1.0], [1.0, 1.0, 1.0], [1.0, 1.0, 1.0]], [[-1.0, -1.0, -1.0], [-1.0, -1.0, 1.0], [1.0, 1.0, 1.0]], [[1.0, -1.0, 1.0], [-1.0, -1.0, 1.0], [1.0, 1.0, -1.0]], [[-1.0, -1.0, -1.0], [-1.0, -1.0, 1.0], [1.0, -1.0, 1.0]], [[-1.0, 1.0, 1.0], [1.0, 1.0, 1.0], [1.0, 1.0, 1.0]], [[1.0, 1.0, -1.0], [-1.0, -1.0, -1.0], [-1.0, -1.0, -1.0]], [[-1.0, -1.0, -1.0], [-1.0, -1.0, -1.0], [1.0, -1.0, -1.0]], [[-1.0, 1.0, 1.0], [-1.0, 1.0, 1.0], [-1.0, -1.0, -1.0]], [[1.0, -1.0, -1.0], [-1.0, -1.0, -1.0], [-1.0, -1.0, 1.0]], [[-1.0, -1.0, 1.0], [-1.0, 1.0, 1.0], [1.0, 1.0, 1.0]], [[1.0, 1.0, 1.0], [-1.0, -1.0, 1.0], [1.0, 1.0, -1.0]], [[1.0, 1.0, 1.0], [1.0, 1.0, 1.0], [-1.0, 1.0, 1.0]], [[-1.0, -1.0, -1.0], [-1.0, -1.0, -1.0], [-1.0, -1.0, -1.0]], [[-1.0, -1.0, 1.0], [-1.0, -1.0, 1.0], [1.0, 1.0, 1.0]], [[-1.0, -1.0, -1.0], [-1.0, 1.0, 1.0], [1.0, -1.0, 1.0]], [[1.0, 1.0, 1.0], [1.0, 1.0, -1.0], [1.0, -1.0, -1.0]], [[1.0, 1.0, -1.0], [-1.0, 1.0, -1.0], [-1.0, -1.0, -1.0]], [[1.0, 1.0, -1.0], [1.0, 1.0, -1.0], [-1.0, -1.0, -1.0]], [[-1.0, -1.0, -1.0], [1.0, -1.0, 1.0], [1.0, 1.0, 1.0]], [[1.0, 1.0, -1.0], [1.0, 1.0, -1.0], [-1.0, -1.0, -1.0]], [[1.0, -1.0, -1.0], [-1.0, -1.0, -1.0], [-1.0, -1.0, 1.0]], [[-1.0, -1.0, 1.0], [1.0, 1.0, 1.0], [1.0, 1.0, -1.0]], [[-1.0, 1.0, -1.0], [1.0, 1.0, 1.0], [-1.0, -1.0, -1.0]], [[1.0, -1.0, -1.0], [1.0, 1.0, 1.0], [-1.0, -1.0, -1.0]], [[1.0, 1.0, 1.0], [1.0, -1.0, 1.0], [-1.0, -1.0, -1.0]], [[1.0, 1.0, -1.0], [1.0, 1.0, -1.0], [1.0, -1.0, -1.0]], [[-1.0, -1.0, -1.0], [1.0, -1.0, 1.0], [1.0, 1.0, 1.0]], [[1.0, -1.0, -1.0], [1.0, 1.0, -1.0], [-1.0, -1.0, -1.0]]], [[[1.0, -1.0, 1.0], [1.0, -1.0, 1.0], [-1.0, -1.0, 1.0]], [[-1.0, 1.0, 1.0], [-1.0, -1.0, 1.0], [-1.0, -1.0, -1.0]], [[-1.0, 1.0, -1.0], [-1.0, 1.0, -1.0], [-1.0, 1.0, -1.0]], [[-1.0, -1.0, 1.0], [-1.0, -1.0, 1.0], [1.0, 1.0, 1.0]], [[-1.0, 1.0, -1.0], [1.0, 1.0, -1.0], [1.0, 1.0, -1.0]], [[-1.0, 1.0, 1.0], [1.0, 1.0, -1.0], [-1.0, 1.0, -1.0]], [[1.0, -1.0, 1.0], [1.0, -1.0, 1.0], [-1.0, -1.0, 1.0]], [[-1.0, 1.0, -1.0], [-1.0, 1.0, -1.0], [1.0, 1.0, -1.0]], [[1.0, 1.0, 1.0], [1.0, -1.0, -1.0], [1.0, -1.0, 1.0]], [[-1.0, 1.0, 1.0], [-1.0, 1.0, 1.0], [-1.0, 1.0, 1.0]], [[-1.0, 1.0, -1.0], [-1.0, 1.0, -1.0], [-1.0, 1.0, -1.0]], [[-1.0, -1.0, -1.0], [1.0, -1.0, -1.0], [-1.0, -1.0, -1.0]], [[1.0, -1.0, 1.0], [1.0, -1.0, 1.0], [1.0, -1.0, 1.0]], [[1.0, 1.0, -1.0], [1.0, -1.0, -1.0], [-1.0, 1.0, -1.0]], [[-1.0, 1.0, -1.0], [1.0, 1.0, -1.0], [-1.0, -1.0, -1.0]], [[1.0, 1.0, -1.0], [-1.0, -1.0, -1.0], [1.0, 1.0, -1.0]], [[-1.0, 1.0, -1.0], [-1.0, 1.0, -1.0], [-1.0, 1.0, -1.0]], [[-1.0, -1.0, 1.0], [-1.0, -1.0, 1.0], [-1.0, -1.0, 1.0]], [[-1.0, -1.0, 1.0], [1.0, -1.0, 1.0], [-1.0, -1.0, 1.0]], [[1.0, -1.0, 1.0], [-1.0, -1.0, 1.0], [-1.0, -1.0, 1.0]], [[-1.0, 1.0, 1.0], [-1.0, -1.0, -1.0], [1.0, 1.0, 1.0]], [[-1.0, 1.0, -1.0], [1.0, -1.0, -1.0], [-1.0, -1.0, -1.0]], [[-1.0, 1.0, 1.0], [-1.0, 1.0, -1.0], [-1.0, 1.0, 1.0]], [[1.0, -1.0, 1.0], [1.0, -1.0, 1.0], [-1.0, -1.0, 1.0]], [[-1.0, 1.0, 1.0], [-1.0, 1.0, -1.0], [1.0, 1.0, 1.0]], [[1.0, -1.0, 1.0], [1.0, -1.0, 1.0], [1.0, -1.0, 1.0]], [[-1.0, 1.0, -1.0], [-1.0, 1.0, -1.0], [1.0, 1.0, -1.0]], [[-1.0, 1.0, -1.0], [-1.0, 1.0, -1.0], [-1.0, 1.0, -1.0]], [[1.0, -1.0, 1.0], [-1.0, -1.0, 1.0], [1.0, -1.0, 1.0]], [[1.0, 1.0, 1.0], [1.0, -1.0, 1.0], [-1.0, -1.0, 1.0]], [[-1.0, 1.0, 1.0], [-1.0, 1.0, -1.0], [-1.0, 1.0, -1.0]], [[1.0, -1.0, 1.0], [-1.0, -1.0, 1.0], [1.0, -1.0, 1.0]], [[-1.0, 1.0, 1.0], [-1.0, 1.0, -1.0], [-1.0, 1.0, -1.0]], [[1.0, -1.0, -1.0], [1.0, -1.0, 1.0], [1.0, -1.0, 1.0]], [[1.0, -1.0, 1.0], [1.0, -1.0, 1.0], [1.0, -1.0, -1.0]], [[-1.0, 1.0, -1.0], [1.0, 1.0, -1.0], [-1.0, -1.0, -1.0]], [[1.0, 1.0, 1.0], [-1.0, 1.0, 1.0], [1.0, 1.0, 1.0]], [[-1.0, 1.0, -1.0], [-1.0, 1.0, -1.0], [1.0, 1.0, -1.0]], [[1.0, -1.0, 1.0], [1.0, -1.0, 1.0], [1.0, -1.0, 1.0]], [[-1.0, -1.0, -1.0], [1.0, 1.0, -1.0], [1.0, 1.0, 1.0]], [[-1.0, -1.0, -1.0], [-1.0, -1.0, -1.0], [1.0, 1.0, -1.0]], [[-1.0, 1.0, -1.0], [-1.0, 1.0, -1.0], [1.0, 1.0, -1.0]], [[-1.0, -1.0, -1.0], [-1.0, 1.0, 1.0], [-1.0, 1.0, 1.0]], [[-1.0, 1.0, -1.0], [-1.0, 1.0, -1.0], [1.0, 1.0, -1.0]], [[-1.0, -1.0, -1.0], [1.0, -1.0, -1.0], [-1.0, -1.0, -1.0]], [[1.0, -1.0, 1.0], [1.0, -1.0, 1.0], [1.0, 1.0, 1.0]], [[-1.0, 1.0, -1.0], [-1.0, 1.0, -1.0], [1.0, 1.0, -1.0]], [[1.0, 1.0, 1.0], [1.0, -1.0, -1.0], [1.0, -1.0, -1.0]], [[1.0, 1.0, 1.0], [1.0, 1.0, 1.0], [-1.0, 1.0, -1.0]], [[1.0, -1.0, 1.0], [1.0, -1.0, 1.0], [1.0, -1.0, 1.0]], [[1.0, -1.0, -1.0], [1.0, -1.0, -1.0], [1.0, 1.0, 1.0]], [[1.0, -1.0, 1.0], [1.0, -1.0, 1.0], [-1.0, -1.0, 1.0]], [[-1.0, 1.0, -1.0], [-1.0, 1.0, -1.0], [1.0, 1.0, -1.0]], [[-1.0, 1.0, -1.0], [1.0, 1.0, -1.0], [-1.0, -1.0, -1.0]], [[1.0, -1.0, 1.0], [1.0, -1.0, 1.0], [1.0, -1.0, -1.0]], [[-1.0, 1.0, -1.0], [-1.0, 1.0, -1.0], [-1.0, -1.0, 1.0]], [[-1.0, 1.0, -1.0], [-1.0, 1.0, -1.0], [-1.0, 1.0, -1.0]], [[1.0, -1.0, 1.0], [1.0, -1.0, 1.0], [1.0, -1.0, 1.0]], [[1.0, -1.0, 1.0], [1.0, -1.0, 1.0], [-1.0, -1.0, 1.0]], [[-1.0, -1.0, -1.0], [1.0, 1.0, -1.0], [-1.0, 1.0, -1.0]], [[-1.0, 1.0, -1.0], [-1.0, 1.0, -1.0], [-1.0, 1.0, -1.0]], [[1.0, -1.0, -1.0], [1.0, -1.0, 1.0], [-1.0, -1.0, 1.0]], [[1.0, -1.0, 1.0], [1.0, -1.0, 1.0], [1.0, -1.0, 1.0]], [[-1.0, 1.0, -1.0], [-1.0, 1.0, 1.0], [1.0, 1.0, 1.0]]], [[[-1.0, -1.0, 1.0], [-1.0, 1.0, 1.0], [1.0, -1.0, -1.0]], [[-1.0, -1.0, -1.0], [-1.0, -1.0, -1.0], [-1.0, -1.0, -1.0]], [[1.0, 1.0, -1.0], [-1.0, 1.0, -1.0], [1.0, -1.0, -1.0]], [[-1.0, -1.0, -1.0], [-1.0, -1.0, -1.0], [-1.0, -1.0, -1.0]], [[1.0, 1.0, -1.0], [1.0, 1.0, 1.0], [1.0, 1.0, 1.0]], [[1.0, -1.0, 1.0], [-1.0, -1.0, -1.0], [1.0, 1.0, 1.0]], [[-1.0, 1.0, 1.0], [-1.0, 1.0, 1.0], [-1.0, -1.0, -1.0]], [[-1.0, 1.0, -1.0], [1.0, 1.0, -1.0], [1.0, -1.0, 1.0]], [[-1.0, -1.0, -1.0], [1.0, 1.0, -1.0], [1.0, 1.0, -1.0]], [[-1.0, -1.0, -1.0], [-1.0, -1.0, -1.0], [-1.0, -1.0, -1.0]], [[1.0, 1.0, 1.0], [1.0, 1.0, 1.0], [1.0, -1.0, 1.0]], [[1.0, 1.0, 1.0], [1.0, -1.0, 1.0], [1.0, 1.0, 1.0]], [[-1.0, 1.0, 1.0], [-1.0, -1.0, -1.0], [1.0, 1.0, 1.0]], [[1.0, 1.0, 1.0], [1.0, 1.0, 1.0], [1.0, 1.0, 1.0]], [[1.0, 1.0, -1.0], [-1.0, 1.0, -1.0], [1.0, -1.0, -1.0]], [[-1.0, -1.0, -1.0], [-1.0, -1.0, -1.0], [-1.0, -1.0, -1.0]], [[1.0, -1.0, -1.0], [1.0, -1.0, -1.0], [1.0, -1.0, -1.0]], [[-1.0, -1.0, -1.0], [1.0, -1.0, -1.0], [1.0, -1.0, -1.0]], [[-1.0, -1.0, -1.0], [-1.0, -1.0, -1.0], [1.0, 1.0, -1.0]], [[1.0, 1.0, 1.0], [1.0, 1.0, -1.0], [-1.0, 1.0, -1.0]], [[-1.0, -1.0, -1.0], [1.0, 1.0, 1.0], [-1.0, -1.0, -1.0]], [[1.0, 1.0, 1.0], [-1.0, 1.0, 1.0], [-1.0, 1.0, 1.0]], [[-1.0, -1.0, -1.0], [1.0, -1.0, -1.0], [-1.0, -1.0, -1.0]], [[1.0, -1.0, 1.0], [1.0, -1.0, 1.0], [-1.0, 1.0, -1.0]], [[1.0, 1.0, -1.0], [1.0, 1.0, -1.0], [1.0, 1.0, -1.0]], [[-1.0, -1.0, -1.0], [1.0, 1.0, 1.0], [-1.0, -1.0, -1.0]], [[1.0, 1.0, -1.0], [1.0, -1.0, -1.0], [1.0, -1.0, -1.0]], [[1.0, 1.0, -1.0], [1.0, -1.0, -1.0], [1.0, -1.0, -1.0]], [[-1.0, -1.0, -1.0], [-1.0, -1.0, -1.0], [-1.0, -1.0, -1.0]], [[-1.0, 1.0, -1.0], [-1.0, 1.0, 1.0], [-1.0, -1.0, -1.0]], [[1.0, -1.0, -1.0], [1.0, 1.0, 1.0], [1.0, -1.0, -1.0]], [[1.0, -1.0, 1.0], [1.0, -1.0, -1.0], [-1.0, 1.0, -1.0]], [[-1.0, 1.0, -1.0], [1.0, -1.0, -1.0], [1.0, 1.0, 1.0]], [[-1.0, -1.0, 1.0], [-1.0, 1.0, 1.0], [-1.0, 1.0, 1.0]], [[-1.0, -1.0, -1.0], [1.0, 1.0, 1.0], [-1.0, -1.0, -1.0]], [[1.0, -1.0, 1.0], [1.0, -1.0, 1.0], [1.0, 1.0, -1.0]], [[1.0, -1.0, 1.0], [1.0, 1.0, 1.0], [1.0, 1.0, 1.0]], [[-1.0, 1.0, -1.0], [1.0, 1.0, -1.0], [1.0, -1.0, -1.0]], [[-1.0, 1.0, 1.0], [-1.0, -1.0, -1.0], [-1.0, 1.0, 1.0]], [[1.0, -1.0, -1.0], [1.0, 1.0, -1.0], [1.0, 1.0, 1.0]], [[1.0, 1.0, -1.0], [1.0, 1.0, 1.0], [1.0, 1.0, 1.0]], [[1.0, 1.0, 1.0], [1.0, 1.0, 1.0], [1.0, -1.0, 1.0]], [[-1.0, -1.0, -1.0], [-1.0, -1.0, -1.0], [1.0, -1.0, -1.0]], [[1.0, -1.0, -1.0], [1.0, -1.0, 1.0], [-1.0, -1.0, 1.0]], [[-1.0, -1.0, 1.0], [1.0, 1.0, 1.0], [1.0, 1.0, -1.0]], [[-1.0, 1.0, -1.0], [-1.0, -1.0, 1.0], [-1.0, -1.0, -1.0]], [[-1.0, 1.0, -1.0], [1.0, 1.0, -1.0], [-1.0, 1.0, -1.0]], [[1.0, 1.0, 1.0], [1.0, 1.0, 1.0], [-1.0, -1.0, 1.0]], [[1.0, 1.0, 1.0], [1.0, -1.0, -1.0], [-1.0, -1.0, -1.0]], [[-1.0, 1.0, -1.0], [-1.0, -1.0, 1.0], [-1.0, -1.0, 1.0]], [[-1.0, 1.0, -1.0], [1.0, 1.0, 1.0], [1.0, 1.0, -1.0]], [[-1.0, 1.0, 1.0], [-1.0, -1.0, -1.0], [-1.0, -1.0, -1.0]], [[1.0, -1.0, 1.0], [-1.0, -1.0, 1.0], [1.0, 1.0, 1.0]], [[1.0, 1.0, 1.0], [-1.0, 1.0, 1.0], [1.0, 1.0, 1.0]], [[-1.0, -1.0, -1.0], [-1.0, 1.0, 1.0], [1.0, 1.0, -1.0]], [[1.0, 1.0, 1.0], [1.0, 1.0, 1.0], [1.0, 1.0, 1.0]], [[1.0, -1.0, 1.0], [-1.0, 1.0, 1.0], [-1.0, -1.0, 1.0]], [[-1.0, -1.0, 1.0], [-1.0, -1.0, 1.0], [-1.0, -1.0, 1.0]], [[-1.0, 1.0, 1.0], [-1.0, 1.0, 1.0], [-1.0, 1.0, 1.0]], [[-1.0, 1.0, -1.0], [-1.0, -1.0, 1.0], [1.0, 1.0, -1.0]], [[1.0, -1.0, -1.0], [1.0, 1.0, -1.0], [-1.0, -1.0, -1.0]], [[-1.0, -1.0, -1.0], [-1.0, -1.0, 1.0], [-1.0, -1.0, -1.0]], [[-1.0, 1.0, 1.0], [-1.0, 1.0, 1.0], [1.0, 1.0, 1.0]], [[1.0, -1.0, 1.0], [1.0, 1.0, 1.0], [-1.0, 1.0, 1.0]]], [[[-1.0, -1.0, -1.0], [1.0, -1.0, 1.0], [1.0, 1.0, 1.0]], [[-1.0, -1.0, -1.0], [1.0, 1.0, -1.0], [-1.0, 1.0, 1.0]], [[-1.0, -1.0, 1.0], [1.0, -1.0, -1.0], [-1.0, 1.0, 1.0]], [[1.0, 1.0, 1.0], [1.0, -1.0, -1.0], [-1.0, -1.0, -1.0]], [[-1.0, -1.0, -1.0], [1.0, 1.0, 1.0], [1.0, -1.0, -1.0]], [[-1.0, 1.0, -1.0], [-1.0, -1.0, -1.0], [1.0, 1.0, 1.0]], [[1.0, -1.0, 1.0], [-1.0, -1.0, 1.0], [-1.0, -1.0, -1.0]], [[1.0, 1.0, 1.0], [1.0, -1.0, -1.0], [-1.0, -1.0, 1.0]], [[-1.0, -1.0, -1.0], [1.0, 1.0, -1.0], [-1.0, 1.0, 1.0]], [[-1.0, -1.0, -1.0], [1.0, 1.0, 1.0], [1.0, 1.0, 1.0]], [[-1.0, -1.0, -1.0], [1.0, 1.0, 1.0], [1.0, -1.0, 1.0]], [[-1.0, -1.0, -1.0], [-1.0, -1.0, -1.0], [1.0, 1.0, 1.0]], [[1.0, 1.0, 1.0], [1.0, 1.0, -1.0], [-1.0, -1.0, 1.0]], [[1.0, -1.0, -1.0], [1.0, 1.0, 1.0], [-1.0, -1.0, -1.0]], [[1.0, 1.0, -1.0], [1.0, 1.0, 1.0], [-1.0, -1.0, -1.0]], [[1.0, 1.0, 1.0], [-1.0, -1.0, -1.0], [-1.0, -1.0, -1.0]], [[1.0, 1.0, 1.0], [-1.0, 1.0, 1.0], [1.0, -1.0, -1.0]], [[-1.0, -1.0, -1.0], [1.0, 1.0, 1.0], [-1.0, 1.0, -1.0]], [[-1.0, -1.0, -1.0], [1.0, -1.0, -1.0], [1.0, 1.0, 1.0]], [[1.0, 1.0, -1.0], [-1.0, -1.0, -1.0], [1.0, 1.0, 1.0]], [[-1.0, 1.0, 1.0], [-1.0, -1.0, -1.0], [-1.0, 1.0, 1.0]], [[1.0, 1.0, 1.0], [-1.0, -1.0, -1.0], [-1.0, -1.0, -1.0]], [[1.0, 1.0, 1.0], [1.0, 1.0, 1.0], [-1.0, -1.0, -1.0]], [[1.0, -1.0, -1.0], [1.0, 1.0, 1.0], [-1.0, -1.0, -1.0]], [[-1.0, -1.0, -1.0], [-1.0, 1.0, 1.0], [-1.0, -1.0, -1.0]], [[1.0, -1.0, 1.0], [1.0, 1.0, 1.0], [-1.0, -1.0, -1.0]], [[1.0, 1.0, 1.0], [1.0, 1.0, -1.0], [-1.0, -1.0, -1.0]], [[-1.0, -1.0, -1.0], [1.0, 1.0, 1.0], [-1.0, 1.0, 1.0]], [[1.0, 1.0, 1.0], [1.0, 1.0, -1.0], [-1.0, -1.0, -1.0]], [[1.0, 1.0, 1.0], [-1.0, -1.0, -1.0], [1.0, -1.0, -1.0]], [[1.0, 1.0, 1.0], [1.0, 1.0, -1.0], [-1.0, -1.0, -1.0]], [[1.0, -1.0, -1.0], [-1.0, -1.0, -1.0], [1.0, 1.0, 1.0]], [[-1.0, -1.0, -1.0], [1.0, 1.0, 1.0], [-1.0, -1.0, 1.0]], [[1.0, 1.0, -1.0], [-1.0, -1.0, -1.0], [1.0, 1.0, 1.0]], [[1.0, 1.0, 1.0], [1.0, 1.0, -1.0], [-1.0, -1.0, -1.0]], [[1.0, 1.0, 1.0], [1.0, 1.0, 1.0], [-1.0, -1.0, -1.0]], [[1.0, 1.0, 1.0], [1.0, -1.0, -1.0], [1.0, -1.0, -1.0]], [[-1.0, -1.0, -1.0], [1.0, 1.0, -1.0], [-1.0, 1.0, 1.0]], [[1.0, 1.0, 1.0], [-1.0, 1.0, -1.0], [-1.0, -1.0, 1.0]], [[-1.0, -1.0, 1.0], [1.0, 1.0, 1.0], [1.0, 1.0, 1.0]], [[-1.0, -1.0, -1.0], [1.0, 1.0, 1.0], [1.0, 1.0, 1.0]], [[-1.0, 1.0, 1.0], [1.0, 1.0, -1.0], [-1.0, -1.0, -1.0]], [[-1.0, -1.0, -1.0], [-1.0, -1.0, -1.0], [-1.0, -1.0, -1.0]], [[-1.0, -1.0, -1.0], [-1.0, 1.0, -1.0], [1.0, 1.0, 1.0]], [[-1.0, 1.0, 1.0], [-1.0, 1.0, -1.0], [-1.0, -1.0, -1.0]], [[-1.0, -1.0, -1.0], [-1.0, -1.0, -1.0], [1.0, 1.0, 1.0]], [[1.0, 1.0, 1.0], [1.0, -1.0, -1.0], [-1.0, -1.0, -1.0]], [[1.0, 1.0, 1.0], [1.0, -1.0, -1.0], [1.0, 1.0, 1.0]], [[1.0, 1.0, 1.0], [-1.0, -1.0, -1.0], [-1.0, -1.0, -1.0]], [[1.0, -1.0, -1.0], [-1.0, -1.0, 1.0], [1.0, 1.0, 1.0]], [[-1.0, 1.0, 1.0], [1.0, 1.0, 1.0], [-1.0, -1.0, 1.0]], [[-1.0, 1.0, 1.0], [-1.0, -1.0, -1.0], [1.0, 1.0, 1.0]], [[-1.0, 1.0, 1.0], [1.0, 1.0, 1.0], [-1.0, -1.0, -1.0]], [[-1.0, -1.0, -1.0], [-1.0, -1.0, -1.0], [1.0, 1.0, 1.0]], [[-1.0, 1.0, -1.0], [1.0, 1.0, 1.0], [-1.0, -1.0, -1.0]], [[-1.0, -1.0, -1.0], [-1.0, 1.0, 1.0], [1.0, 1.0, -1.0]], [[-1.0, -1.0, -1.0], [1.0, 1.0, 1.0], [-1.0, -1.0, -1.0]], [[-1.0, -1.0, -1.0], [-1.0, 1.0, -1.0], [1.0, 1.0, 1.0]], [[1.0, 1.0, 1.0], [-1.0, 1.0, 1.0], [-1.0, -1.0, -1.0]], [[1.0, 1.0, -1.0], [1.0, 1.0, 1.0], [-1.0, -1.0, -1.0]], [[1.0, 1.0, -1.0], [1.0, 1.0, 1.0], [-1.0, -1.0, -1.0]], [[-1.0, -1.0, -1.0], [1.0, 1.0, 1.0], [-1.0, 1.0, 1.0]], [[1.0, 1.0, -1.0], [-1.0, -1.0, -1.0], [1.0, 1.0, 1.0]], [[-1.0, -1.0, -1.0], [-1.0, 1.0, -1.0], [1.0, 1.0, 1.0]]], [[[-1.0, -1.0, -1.0], [1.0, 1.0, 1.0], [-1.0, 1.0, 1.0]], [[1.0, 1.0, -1.0], [1.0, 1.0, 1.0], [1.0, 1.0, 1.0]], [[1.0, -1.0, -1.0], [1.0, 1.0, -1.0], [1.0, 1.0, 1.0]], [[-1.0, -1.0, -1.0], [-1.0, 1.0, 1.0], [1.0, 1.0, 1.0]], [[-1.0, -1.0, -1.0], [1.0, 1.0, -1.0], [-1.0, -1.0, 1.0]], [[1.0, -1.0, -1.0], [1.0, -1.0, -1.0], [1.0, -1.0, -1.0]], [[-1.0, -1.0, -1.0], [1.0, -1.0, -1.0], [1.0, -1.0, 1.0]], [[-1.0, 1.0, -1.0], [-1.0, -1.0, 1.0], [1.0, -1.0, 1.0]], [[1.0, 1.0, 1.0], [1.0, 1.0, 1.0], [-1.0, -1.0, 1.0]], [[1.0, 1.0, 1.0], [1.0, -1.0, 1.0], [1.0, 1.0, 1.0]], [[-1.0, 1.0, 1.0], [-1.0, 1.0, 1.0], [1.0, 1.0, -1.0]], [[-1.0, -1.0, -1.0], [-1.0, -1.0, -1.0], [-1.0, 1.0, -1.0]], [[-1.0, 1.0, 1.0], [-1.0, -1.0, 1.0], [-1.0, -1.0, -1.0]], [[-1.0, -1.0, -1.0], [-1.0, -1.0, -1.0], [-1.0, -1.0, -1.0]], [[-1.0, 1.0, -1.0], [1.0, -1.0, 1.0], [1.0, 1.0, 1.0]], [[-1.0, -1.0, -1.0], [-1.0, -1.0, -1.0], [-1.0, -1.0, 1.0]], [[-1.0, 1.0, 1.0], [1.0, -1.0, 1.0], [-1.0, -1.0, -1.0]], [[1.0, 1.0, 1.0], [1.0, 1.0, 1.0], [-1.0, -1.0, 1.0]], [[-1.0, -1.0, -1.0], [1.0, 1.0, 1.0], [1.0, -1.0, 1.0]], [[-1.0, -1.0, -1.0], [1.0, -1.0, -1.0], [1.0, 1.0, 1.0]], [[1.0, -1.0, -1.0], [1.0, 1.0, 1.0], [1.0, -1.0, 1.0]], [[-1.0, -1.0, -1.0], [1.0, -1.0, -1.0], [1.0, 1.0, -1.0]], [[1.0, 1.0, 1.0], [1.0, 1.0, 1.0], [-1.0, -1.0, 1.0]], [[1.0, 1.0, 1.0], [-1.0, -1.0, -1.0], [-1.0, 1.0, -1.0]], [[1.0, -1.0, -1.0], [-1.0, 1.0, 1.0], [-1.0, -1.0, 1.0]], [[1.0, -1.0, 1.0], [1.0, 1.0, -1.0], [-1.0, 1.0, 1.0]], [[-1.0, 1.0, 1.0], [-1.0, -1.0, 1.0], [-1.0, -1.0, 1.0]], [[1.0, -1.0, -1.0], [-1.0, 1.0, 1.0], [-1.0, 1.0, 1.0]], [[-1.0, -1.0, 1.0], [-1.0, -1.0, 1.0], [1.0, -1.0, -1.0]], [[1.0, -1.0, -1.0], [-1.0, -1.0, -1.0], [1.0, 1.0, -1.0]], [[-1.0, 1.0, 1.0], [-1.0, -1.0, -1.0], [1.0, -1.0, -1.0]], [[-1.0, 1.0, 1.0], [1.0, -1.0, 1.0], [-1.0, 1.0, -1.0]], [[-1.0, 1.0, -1.0], [-1.0, 1.0, -1.0], [1.0, -1.0, 1.0]], [[-1.0, 1.0, 1.0], [-1.0, -1.0, 1.0], [-1.0, 1.0, 1.0]], [[1.0, -1.0, -1.0], [1.0, 1.0, 1.0], [1.0, 1.0, -1.0]], [[-1.0, 1.0, 1.0], [-1.0, -1.0, 1.0], [-1.0, -1.0, -1.0]], [[1.0, 1.0, 1.0], [1.0, 1.0, 1.0], [1.0, 1.0, 1.0]], [[-1.0, -1.0, -1.0], [-1.0, 1.0, 1.0], [1.0, -1.0, 1.0]], [[-1.0, 1.0, 1.0], [-1.0, -1.0, 1.0], [-1.0, -1.0, -1.0]], [[-1.0, 1.0, 1.0], [-1.0, -1.0, 1.0], [-1.0, -1.0, -1.0]], [[-1.0, -1.0, 1.0], [-1.0, -1.0, 1.0], [-1.0, -1.0, -1.0]], [[1.0, 1.0, 1.0], [-1.0, -1.0, -1.0], [1.0, -1.0, -1.0]], [[-1.0, -1.0, 1.0], [-1.0, -1.0, -1.0], [-1.0, -1.0, -1.0]], [[-1.0, 1.0, 1.0], [-1.0, -1.0, 1.0], [-1.0, -1.0, 1.0]], [[1.0, -1.0, -1.0], [-1.0, -1.0, -1.0], [-1.0, -1.0, 1.0]], [[1.0, -1.0, -1.0], [1.0, 1.0, 1.0], [1.0, 1.0, 1.0]], [[-1.0, 1.0, -1.0], [-1.0, -1.0, 1.0], [1.0, -1.0, 1.0]], [[-1.0, 